{
  "ip": 0,
  "fr": 60,
  "v": "5.1.20",
  "assets": [],
  "layers": [
    {
      "ty": 4,
      "nm": "pin",
      "ip": 0,
      "st": 0,
      "ind": 10,
      "hix": 2,
      "ks": {
        "o": {
          "a": 0,
          "k": 100
        },
        "or": {
          "a": 0,
          "k": [
            0,
            0,
            0
          ]
        },
        "a": {
          "a": 0,
          "k": [
            32.5,
            98,
            0
          ]
        },
        "p": {
          "s": true,
          "x": {
            "a": 1,
            "k": [
              {
                "t": 0,
                "s": [
                  305.5
                ],
                "e": [
                  305.5
                ],
                "i": {
                  "x": [
                    1
                  ],
                  "y": [
                    1
                  ]
                },
                "o": {
                  "x": [
                    0
                  ],
                  "y": [
                    0
                  ]
                }
              },
              {
                "t": 76,
                "s": [
                  305.5
                ],
                "e": [
                  545.5
                ],
                "i": {
                  "x": [
                    1
                  ],
                  "y": [
                    1
                  ]
                },
                "o": {
                  "x": [
                    0
                  ],
                  "y": [
                    0
                  ]
                }
              },
              {
                "t": 86
              }
            ]
          },
          "y": {
            "a": 1,
            "k": [
              {
                "t": 0,
                "s": [
                  629
                ],
                "e": [
                  629
                ],
                "i": {
                  "x": [
                    1
                  ],
                  "y": [
                    1
                  ]
                },
                "o": {
                  "x": [
                    0
                  ],
                  "y": [
                    0
                  ]
                }
              },
              {
                "t": 76,
                "s": [
                  629
                ],
                "e": [
                  610
                ],
                "i": {
                  "x": [
                    1
                  ],
                  "y": [
                    1
                  ]
                },
                "o": {
                  "x": [
                    0
                  ],
                  "y": [
                    0
                  ]
                }
              },
              {
                "t": 86
              }
            ]
          }
        },
        "rx": {
          "a": 0,
          "k": 0
        },
        "ry": {
          "a": 0,
          "k": 0
        },
        "rz": {
          "a": 1,
          "k": [
            {
              "t": 0,
              "s": [
                0
              ],
              "e": [
                0
              ],
              "i": {
                "x": [
                  1
                ],
                "y": [
                  1
                ]
              },
              "o": {
                "x": [
                  0
                ],
                "y": [
                  0
                ]
              }
            },
            {
              "t": 76,
              "s": [
                0
              ],
              "e": [
                220.46994448790224
              ],
              "i": {
                "x": [
                  1
                ],
                "y": [
                  1
                ]
              },
              "o": {
                "x": [
                  0
                ],
                "y": [
                  0
                ]
              }
            },
            {
              "t": 86
            }
          ]
        },
        "s": {
          "a": 0,
          "k": [
            110.00000000000001,
            110.00000000000001
          ]
        }
      },
      "shapes": [
        {
          "ty": "gr",
          "nm": "pin shape group",
          "it": [
            {
              "ty": "sh",
              "ks": {
                "a": 0,
                "k": {
                  "c": true,
                  "v": [
                    [
                      17.1872038,
                      31.7212942
                    ],
                    [
                      13.2207485,
                      79.9068878
                    ],
                    [
                      10.0715574,
                      85.5525742
                    ],
                    [
                      3.3481979,
                      105.901533
                    ],
                    [
                      0.692089487,
                      133.221213
                    ],
                    [
                      3.3481979,
                      160.540894
                    ],
                    [
                      10.0715574,
                      180.870807
                    ],
                    [
                      20.2437716,
                      195.010871
                    ],
                    [
                      45.1240158,
                      195.010871
                    ],
                    [
                      55.2935058,
                      180.870807
                    ],
                    [
                      61.9923474,
                      160.540894
                    ],
                    [
                      64.6729737,
                      133.221213
                    ],
                    [
                      61.9923474,
                      105.901533
                    ],
                    [
                      55.2935058,
                      85.5525742
                    ],
                    [
                      52.1334178,
                      79.9068878
                    ],
                    [
                      48.1805836,
                      31.7212942
                    ],
                    [
                      48.8234981,
                      30.0561568
                    ],
                    [
                      50.2046745,
                      21.7794445
                    ],
                    [
                      48.8234981,
                      13.4809656
                    ],
                    [
                      45.0531863,
                      6.77960383
                    ],
                    [
                      39.2042993,
                      2.0943643
                    ],
                    [
                      32.6661863,
                      0.543501037
                    ],
                    [
                      26.1607639,
                      2.0943643
                    ],
                    [
                      20.2764622,
                      6.77960383
                    ],
                    [
                      16.5415651,
                      13.4809656
                    ],
                    [
                      15.1740098,
                      21.7794445
                    ],
                    [
                      16.5415651,
                      30.0561568
                    ]
                  ],
                  "i": [
                    [
                      -0.24245509999999726,
                      -0.5414417
                    ],
                    [
                      9.3576743,
                      -14.357728800000004
                    ],
                    [
                      0.9207843000000011,
                      -1.9508226999999891
                    ],
                    [
                      1.4138669399999997,
                      -7.030580400000005
                    ],
                    [
                      0,
                      -9.182743000000002
                    ],
                    [
                      -1.7707389400000002,
                      -9.000448000000006
                    ],
                    [
                      -3.05656779,
                      -6.47553400000001
                    ],
                    [
                      -4.219807099999997,
                      -4.062173999999999
                    ],
                    [
                      0,
                      0
                    ],
                    [
                      -2.5144492999999954,
                      5.278376999999978
                    ],
                    [
                      -1.3675552999999994,
                      7.025138999999996
                    ],
                    [
                      0,
                      9.160977000000003
                    ],
                    [
                      1.7707388999999978,
                      9.003169
                    ],
                    [
                      3.0810857000000027,
                      6.461930300000006
                    ],
                    [
                      1.1741361000000055,
                      1.814782099999988
                    ],
                    [
                      -6.862294399999996,
                      15.712693599999998
                    ],
                    [
                      -0.18252230000000225,
                      0.5632081999999983
                    ],
                    [
                      0,
                      2.813320300000001
                    ],
                    [
                      0.8962663000000006,
                      2.6772797000000015
                    ],
                    [
                      1.6563219000000018,
                      1.9861932999999992
                    ],
                    [
                      2.2747184999999988,
                      1.1481829700000001
                    ],
                    [
                      2.2965122000000022,
                      0
                    ],
                    [
                      1.9995729000000004,
                      -1.00942153
                    ],
                    [
                      1.6072860999999996,
                      -1.95354354
                    ],
                    [
                      0.8417820999999996,
                      -2.4541730999999984
                    ],
                    [
                      0,
                      -2.8323661000000016
                    ],
                    [
                      -0.9289568999999993,
                      -2.652792399999999
                    ]
                  ],
                  "o": [
                    [
                      6.8840881,
                      15.712693599999998
                    ],
                    [
                      -1.1823086999999983,
                      1.814782099999988
                    ],
                    [
                      -3.05656779,
                      6.461930300000006
                    ],
                    [
                      -1.7680147300000002,
                      9.003169
                    ],
                    [
                      0,
                      9.160977000000003
                    ],
                    [
                      1.4138669399999997,
                      7.025138999999996
                    ],
                    [
                      2.5035524999999996,
                      5.278376999999978
                    ],
                    [
                      0,
                      0
                    ],
                    [
                      4.219807099999997,
                      -4.062173999999999
                    ],
                    [
                      3.0810857000000027,
                      -6.47553400000001
                    ],
                    [
                      1.7707388999999978,
                      -9.000448000000006
                    ],
                    [
                      0,
                      -9.182743000000002
                    ],
                    [
                      -1.3675552999999994,
                      -7.033301199999997
                    ],
                    [
                      -0.9207843000000011,
                      -1.9508226999999891
                    ],
                    [
                      -9.333156299999999,
                      -14.357728800000004
                    ],
                    [
                      0.24517930000000376,
                      -0.5414417
                    ],
                    [
                      0.8962663000000006,
                      -2.652792399999999
                    ],
                    [
                      0,
                      -2.8323661000000016
                    ],
                    [
                      -0.8281610000000015,
                      -2.4541730999999984
                    ],
                    [
                      -1.6100104000000002,
                      -1.95354354
                    ],
                    [
                      -2.032263400000005,
                      -1.00942153
                    ],
                    [
                      -2.252924799999999,
                      0
                    ],
                    [
                      -2.252924799999999,
                      1.1481829700000001
                    ],
                    [
                      -1.6427009000000012,
                      1.9834724899999996
                    ],
                    [
                      -0.9289568999999993,
                      2.674558899999999
                    ],
                    [
                      0,
                      2.813320300000001
                    ],
                    [
                      0.1988675999999998,
                      0.5632081999999983
                    ]
                  ]
                }
              }
            },
            {
              "ty": "st",
              "o": {
                "a": 0,
                "k": 0
              },
              "w": {
                "a": 0,
                "k": 0
              },
              "c": {
                "a": 0,
                "k": [
                  0,
                  0,
                  0,
                  0
                ]
              },
              "lc": 3,
              "lj": 1
            },
            {
              "ty": "gf",
              "o": {
                "a": 0,
                "k": 100
              },
              "r": 2,
              "g": {
                "p": 2,
                "k": {
                  "a": 0,
                  "k": [
                    0,
                    0.9803921568627451,
                    0.9803921568627451,
                    0.9803921568627451,
                    1,
                    0.9882352941176471,
                    0.9137254901960784,
                    0.8588235294117647
                  ]
                }
              },
              "t": 1,
              "s": {
                "a": 0,
                "k": [
                  32.33648685,
                  97.5054355
                ]
              },
              "e": {
                "a": 0,
                "k": [
                  32.33648685,
                  220.75240737765293
                ]
              }
            },
            {
              "ty": "tr",
              "o": {
                "a": 0,
                "k": 100
              },
              "a": {
                "a": 0,
                "k": [
                  0,
                  0
                ]
              },
              "s": {
                "a": 0,
                "k": [
                  100,
                  100
                ]
              },
              "p": {
                "a": 0,
                "k": [
                  1.71,
                  -0.56
                ]
              },
              "r": {
                "a": 0,
                "k": 1.1459155902616465
              }
            }
          ]
        },
        {
          "ty": "gr",
          "nm": "pin shape group",
          "it": [
            {
              "ty": "sh",
              "ks": {
                "a": 0,
                "k": {
                  "c": true,
                  "v": [
                    [
                      17.1872038,
                      31.7212942
                    ],
                    [
                      13.2207485,
                      79.9068878
                    ],
                    [
                      10.0715574,
                      85.5525742
                    ],
                    [
                      3.3481979,
                      105.901533
                    ],
                    [
                      0.692089487,
                      133.221213
                    ],
                    [
                      3.3481979,
                      160.540894
                    ],
                    [
                      10.0715574,
                      180.870807
                    ],
                    [
                      20.2437716,
                      195.010871
                    ],
                    [
                      45.1240158,
                      195.010871
                    ],
                    [
                      55.2935058,
                      180.870807
                    ],
                    [
                      61.9923474,
                      160.540894
                    ],
                    [
                      64.6729737,
                      133.221213
                    ],
                    [
                      61.9923474,
                      105.901533
                    ],
                    [
                      55.2935058,
                      85.5525742
                    ],
                    [
                      52.1334178,
                      79.9068878
                    ],
                    [
                      48.1805836,
                      31.7212942
                    ],
                    [
                      48.8234981,
                      30.0561568
                    ],
                    [
                      50.2046745,
                      21.7794445
                    ],
                    [
                      48.8234981,
                      13.4809656
                    ],
                    [
                      45.0531863,
                      6.77960383
                    ],
                    [
                      39.2042993,
                      2.0943643
                    ],
                    [
                      32.6661863,
                      0.543501037
                    ],
                    [
                      26.1607639,
                      2.0943643
                    ],
                    [
                      20.2764622,
                      6.77960383
                    ],
                    [
                      16.5415651,
                      13.4809656
                    ],
                    [
                      15.1740098,
                      21.7794445
                    ],
                    [
                      16.5415651,
                      30.0561568
                    ]
                  ],
                  "i": [
                    [
                      -0.24245509999999726,
                      -0.5414417
                    ],
                    [
                      9.3576743,
                      -14.357728800000004
                    ],
                    [
                      0.9207843000000011,
                      -1.9508226999999891
                    ],
                    [
                      1.4138669399999997,
                      -7.030580400000005
                    ],
                    [
                      0,
                      -9.182743000000002
                    ],
                    [
                      -1.7707389400000002,
                      -9.000448000000006
                    ],
                    [
                      -3.05656779,
                      -6.47553400000001
                    ],
                    [
                      -4.219807099999997,
                      -4.062173999999999
                    ],
                    [
                      0,
                      0
                    ],
                    [
                      -2.5144492999999954,
                      5.278376999999978
                    ],
                    [
                      -1.3675552999999994,
                      7.025138999999996
                    ],
                    [
                      0,
                      9.160977000000003
                    ],
                    [
                      1.7707388999999978,
                      9.003169
                    ],
                    [
                      3.0810857000000027,
                      6.461930300000006
                    ],
                    [
                      1.1741361000000055,
                      1.814782099999988
                    ],
                    [
                      -6.862294399999996,
                      15.712693599999998
                    ],
                    [
                      -0.18252230000000225,
                      0.5632081999999983
                    ],
                    [
                      0,
                      2.813320300000001
                    ],
                    [
                      0.8962663000000006,
                      2.6772797000000015
                    ],
                    [
                      1.6563219000000018,
                      1.9861932999999992
                    ],
                    [
                      2.2747184999999988,
                      1.1481829700000001
                    ],
                    [
                      2.2965122000000022,
                      0
                    ],
                    [
                      1.9995729000000004,
                      -1.00942153
                    ],
                    [
                      1.6072860999999996,
                      -1.95354354
                    ],
                    [
                      0.8417820999999996,
                      -2.4541730999999984
                    ],
                    [
                      0,
                      -2.8323661000000016
                    ],
                    [
                      -0.9289568999999993,
                      -2.652792399999999
                    ]
                  ],
                  "o": [
                    [
                      6.8840881,
                      15.712693599999998
                    ],
                    [
                      -1.1823086999999983,
                      1.814782099999988
                    ],
                    [
                      -3.05656779,
                      6.461930300000006
                    ],
                    [
                      -1.7680147300000002,
                      9.003169
                    ],
                    [
                      0,
                      9.160977000000003
                    ],
                    [
                      1.4138669399999997,
                      7.025138999999996
                    ],
                    [
                      2.5035524999999996,
                      5.278376999999978
                    ],
                    [
                      0,
                      0
                    ],
                    [
                      4.219807099999997,
                      -4.062173999999999
                    ],
                    [
                      3.0810857000000027,
                      -6.47553400000001
                    ],
                    [
                      1.7707388999999978,
                      -9.000448000000006
                    ],
                    [
                      0,
                      -9.182743000000002
                    ],
                    [
                      -1.3675552999999994,
                      -7.033301199999997
                    ],
                    [
                      -0.9207843000000011,
                      -1.9508226999999891
                    ],
                    [
                      -9.333156299999999,
                      -14.357728800000004
                    ],
                    [
                      0.24517930000000376,
                      -0.5414417
                    ],
                    [
                      0.8962663000000006,
                      -2.652792399999999
                    ],
                    [
                      0,
                      -2.8323661000000016
                    ],
                    [
                      -0.8281610000000015,
                      -2.4541730999999984
                    ],
                    [
                      -1.6100104000000002,
                      -1.95354354
                    ],
                    [
                      -2.032263400000005,
                      -1.00942153
                    ],
                    [
                      -2.252924799999999,
                      0
                    ],
                    [
                      -2.252924799999999,
                      1.1481829700000001
                    ],
                    [
                      -1.6427009000000012,
                      1.9834724899999996
                    ],
                    [
                      -0.9289568999999993,
                      2.674558899999999
                    ],
                    [
                      0,
                      2.813320300000001
                    ],
                    [
                      0.1988675999999998,
                      0.5632081999999983
                    ]
                  ]
                }
              }
            },
            {
              "ty": "st",
              "o": {
                "a": 0,
                "k": 0
              },
              "w": {
                "a": 0,
                "k": 0
              },
              "c": {
                "a": 0,
                "k": [
                  0,
                  0,
                  0,
                  0
                ]
              },
              "lc": 3,
              "lj": 1
            },
            {
              "ty": "fl",
              "o": {
                "a": 0,
                "k": 0
              },
              "c": {
                "a": 0,
                "k": [
                  0,
                  0,
                  0,
                  0
                ]
              },
              "r": 1
            },
            {
              "ty": "tr",
              "o": {
                "a": 0,
                "k": 100
              },
              "a": {
                "a": 0,
                "k": [
                  0,
                  0
                ]
              },
              "s": {
                "a": 0,
                "k": [
                  100,
                  100
                ]
              },
              "p": {
                "a": 0,
                "k": [
                  0,
                  0
                ]
              },
              "r": {
                "a": 0,
                "k": 0
              }
            }
          ]
        }
      ],
      "op": 86
    },
    {
      "ty": 4,
      "nm": "pin",
      "ip": 0,
      "st": 0,
      "ind": 9,
      "hix": 3,
      "ks": {
        "o": {
          "a": 0,
          "k": 100
        },
        "or": {
          "a": 0,
          "k": [
            0,
            0,
            0
          ]
        },
        "a": {
          "a": 0,
          "k": [
            32.5,
            98,
            0
          ]
        },
        "p": {
          "s": true,
          "x": {
            "a": 1,
            "k": [
              {
                "t": 0,
                "s": [
                  181.5
                ],
                "e": [
                  181.5
                ],
                "i": {
                  "x": [
                    1
                  ],
                  "y": [
                    1
                  ]
                },
                "o": {
                  "x": [
                    0
                  ],
                  "y": [
                    0
                  ]
                }
              },
              {
                "t": 74,
                "s": [
                  181.5
                ],
                "e": [
                  540.5
                ],
                "i": {
                  "x": [
                    1
                  ],
                  "y": [
                    1
                  ]
                },
                "o": {
                  "x": [
                    0
                  ],
                  "y": [
                    0
                  ]
                }
              },
              {
                "t": 85
              }
            ]
          },
          "y": {
            "a": 1,
            "k": [
              {
                "t": 0,
                "s": [
                  627
                ],
                "e": [
                  627
                ],
                "i": {
                  "x": [
                    1
                  ],
                  "y": [
                    1
                  ]
                },
                "o": {
                  "x": [
                    0
                  ],
                  "y": [
                    0
                  ]
                }
              },
              {
                "t": 74,
                "s": [
                  627
                ],
                "e": [
                  610
                ],
                "i": {
                  "x": [
                    1
                  ],
                  "y": [
                    1
                  ]
                },
                "o": {
                  "x": [
                    0
                  ],
                  "y": [
                    0
                  ]
                }
              },
              {
                "t": 85
              }
            ]
          }
        },
        "rx": {
          "a": 0,
          "k": 0
        },
        "ry": {
          "a": 0,
          "k": 0
        },
        "rz": {
          "a": 1,
          "k": [
            {
              "t": 0,
              "s": [
                0
              ],
              "e": [
                0
              ],
              "i": {
                "x": [
                  1
                ],
                "y": [
                  1
                ]
              },
              "o": {
                "x": [
                  0
                ],
                "y": [
                  0
                ]
              }
            },
            {
              "t": 74,
              "s": [
                0
              ],
              "e": [
                145.0309410492739
              ],
              "i": {
                "x": [
                  1
                ],
                "y": [
                  1
                ]
              },
              "o": {
                "x": [
                  0
                ],
                "y": [
                  0
                ]
              }
            },
            {
              "t": 85
            }
          ]
        },
        "s": {
          "a": 1,
          "k": [
            {
              "t": 0,
              "s": [
                110.00000000000001,
                110.00000000000001
              ],
              "e": [
                110.00000000000001,
                110.00000000000001
              ],
              "i": {
                "x": [
                  1,
                  1
                ],
                "y": [
                  1,
                  1
                ]
              },
              "o": {
                "x": [
                  0,
                  0
                ],
                "y": [
                  0,
                  0
                ]
              }
            },
            {
              "t": 74,
              "s": [
                110.00000000000001,
                110.00000000000001
              ],
              "e": [
                150,
                150
              ],
              "i": {
                "x": [
                  1,
                  1
                ],
                "y": [
                  1,
                  1
                ]
              },
              "o": {
                "x": [
                  0,
                  0
                ],
                "y": [
                  0,
                  0
                ]
              }
            },
            {
              "t": 85
            }
          ]
        }
      },
      "shapes": [
        {
          "ty": "gr",
          "nm": "pin shape group",
          "it": [
            {
              "ty": "sh",
              "ks": {
                "a": 0,
                "k": {
                  "c": true,
                  "v": [
                    [
                      17.1872038,
                      31.7212942
                    ],
                    [
                      13.2207485,
                      79.9068878
                    ],
                    [
                      10.0715574,
                      85.5525742
                    ],
                    [
                      3.3481979,
                      105.901533
                    ],
                    [
                      0.692089487,
                      133.221213
                    ],
                    [
                      3.3481979,
                      160.540894
                    ],
                    [
                      10.0715574,
                      180.870807
                    ],
                    [
                      20.2437716,
                      195.010871
                    ],
                    [
                      45.1240158,
                      195.010871
                    ],
                    [
                      55.2935058,
                      180.870807
                    ],
                    [
                      61.9923474,
                      160.540894
                    ],
                    [
                      64.6729737,
                      133.221213
                    ],
                    [
                      61.9923474,
                      105.901533
                    ],
                    [
                      55.2935058,
                      85.5525742
                    ],
                    [
                      52.1334178,
                      79.9068878
                    ],
                    [
                      48.1805836,
                      31.7212942
                    ],
                    [
                      48.8234981,
                      30.0561568
                    ],
                    [
                      50.2046745,
                      21.7794445
                    ],
                    [
                      48.8234981,
                      13.4809656
                    ],
                    [
                      45.0531863,
                      6.77960383
                    ],
                    [
                      39.2042993,
                      2.0943643
                    ],
                    [
                      32.6661863,
                      0.543501037
                    ],
                    [
                      26.1607639,
                      2.0943643
                    ],
                    [
                      20.2764622,
                      6.77960383
                    ],
                    [
                      16.5415651,
                      13.4809656
                    ],
                    [
                      15.1740098,
                      21.7794445
                    ],
                    [
                      16.5415651,
                      30.0561568
                    ]
                  ],
                  "i": [
                    [
                      -0.24245509999999726,
                      -0.5414417
                    ],
                    [
                      9.3576743,
                      -14.357728800000004
                    ],
                    [
                      0.9207843000000011,
                      -1.9508226999999891
                    ],
                    [
                      1.4138669399999997,
                      -7.030580400000005
                    ],
                    [
                      0,
                      -9.182743000000002
                    ],
                    [
                      -1.7707389400000002,
                      -9.000448000000006
                    ],
                    [
                      -3.05656779,
                      -6.47553400000001
                    ],
                    [
                      -4.219807099999997,
                      -4.062173999999999
                    ],
                    [
                      0,
                      0
                    ],
                    [
                      -2.5144492999999954,
                      5.278376999999978
                    ],
                    [
                      -1.3675552999999994,
                      7.025138999999996
                    ],
                    [
                      0,
                      9.160977000000003
                    ],
                    [
                      1.7707388999999978,
                      9.003169
                    ],
                    [
                      3.0810857000000027,
                      6.461930300000006
                    ],
                    [
                      1.1741361000000055,
                      1.814782099999988
                    ],
                    [
                      -6.862294399999996,
                      15.712693599999998
                    ],
                    [
                      -0.18252230000000225,
                      0.5632081999999983
                    ],
                    [
                      0,
                      2.813320300000001
                    ],
                    [
                      0.8962663000000006,
                      2.6772797000000015
                    ],
                    [
                      1.6563219000000018,
                      1.9861932999999992
                    ],
                    [
                      2.2747184999999988,
                      1.1481829700000001
                    ],
                    [
                      2.2965122000000022,
                      0
                    ],
                    [
                      1.9995729000000004,
                      -1.00942153
                    ],
                    [
                      1.6072860999999996,
                      -1.95354354
                    ],
                    [
                      0.8417820999999996,
                      -2.4541730999999984
                    ],
                    [
                      0,
                      -2.8323661000000016
                    ],
                    [
                      -0.9289568999999993,
                      -2.652792399999999
                    ]
                  ],
                  "o": [
                    [
                      6.8840881,
                      15.712693599999998
                    ],
                    [
                      -1.1823086999999983,
                      1.814782099999988
                    ],
                    [
                      -3.05656779,
                      6.461930300000006
                    ],
                    [
                      -1.7680147300000002,
                      9.003169
                    ],
                    [
                      0,
                      9.160977000000003
                    ],
                    [
                      1.4138669399999997,
                      7.025138999999996
                    ],
                    [
                      2.5035524999999996,
                      5.278376999999978
                    ],
                    [
                      0,
                      0
                    ],
                    [
                      4.219807099999997,
                      -4.062173999999999
                    ],
                    [
                      3.0810857000000027,
                      -6.47553400000001
                    ],
                    [
                      1.7707388999999978,
                      -9.000448000000006
                    ],
                    [
                      0,
                      -9.182743000000002
                    ],
                    [
                      -1.3675552999999994,
                      -7.033301199999997
                    ],
                    [
                      -0.9207843000000011,
                      -1.9508226999999891
                    ],
                    [
                      -9.333156299999999,
                      -14.357728800000004
                    ],
                    [
                      0.24517930000000376,
                      -0.5414417
                    ],
                    [
                      0.8962663000000006,
                      -2.652792399999999
                    ],
                    [
                      0,
                      -2.8323661000000016
                    ],
                    [
                      -0.8281610000000015,
                      -2.4541730999999984
                    ],
                    [
                      -1.6100104000000002,
                      -1.95354354
                    ],
                    [
                      -2.032263400000005,
                      -1.00942153
                    ],
                    [
                      -2.252924799999999,
                      0
                    ],
                    [
                      -2.252924799999999,
                      1.1481829700000001
                    ],
                    [
                      -1.6427009000000012,
                      1.9834724899999996
                    ],
                    [
                      -0.9289568999999993,
                      2.674558899999999
                    ],
                    [
                      0,
                      2.813320300000001
                    ],
                    [
                      0.1988675999999998,
                      0.5632081999999983
                    ]
                  ]
                }
              }
            },
            {
              "ty": "st",
              "o": {
                "a": 0,
                "k": 0
              },
              "w": {
                "a": 0,
                "k": 0
              },
              "c": {
                "a": 0,
                "k": [
                  0,
                  0,
                  0,
                  0
                ]
              },
              "lc": 3,
              "lj": 1
            },
            {
              "ty": "gf",
              "o": {
                "a": 0,
                "k": 100
              },
              "r": 2,
              "g": {
                "p": 2,
                "k": {
                  "a": 0,
                  "k": [
                    0,
                    0.9803921568627451,
                    0.9803921568627451,
                    0.9803921568627451,
                    1,
                    0.9882352941176471,
                    0.9137254901960784,
                    0.8588235294117647
                  ]
                }
              },
              "t": 1,
              "s": {
                "a": 0,
                "k": [
                  32.33648685,
                  97.5054355
                ]
              },
              "e": {
                "a": 0,
                "k": [
                  32.33648685,
                  220.75240737765293
                ]
              }
            },
            {
              "ty": "tr",
              "o": {
                "a": 0,
                "k": 100
              },
              "a": {
                "a": 0,
                "k": [
                  0,
                  0
                ]
              },
              "s": {
                "a": 0,
                "k": [
                  100,
                  100
                ]
              },
              "p": {
                "a": 0,
                "k": [
                  1.71,
                  -0.56
                ]
              },
              "r": {
                "a": 0,
                "k": 1.1459155902616465
              }
            }
          ]
        },
        {
          "ty": "gr",
          "nm": "pin shape group",
          "it": [
            {
              "ty": "sh",
              "ks": {
                "a": 0,
                "k": {
                  "c": true,
                  "v": [
                    [
                      17.1872038,
                      31.7212942
                    ],
                    [
                      13.2207485,
                      79.9068878
                    ],
                    [
                      10.0715574,
                      85.5525742
                    ],
                    [
                      3.3481979,
                      105.901533
                    ],
                    [
                      0.692089487,
                      133.221213
                    ],
                    [
                      3.3481979,
                      160.540894
                    ],
                    [
                      10.0715574,
                      180.870807
                    ],
                    [
                      20.2437716,
                      195.010871
                    ],
                    [
                      45.1240158,
                      195.010871
                    ],
                    [
                      55.2935058,
                      180.870807
                    ],
                    [
                      61.9923474,
                      160.540894
                    ],
                    [
                      64.6729737,
                      133.221213
                    ],
                    [
                      61.9923474,
                      105.901533
                    ],
                    [
                      55.2935058,
                      85.5525742
                    ],
                    [
                      52.1334178,
                      79.9068878
                    ],
                    [
                      48.1805836,
                      31.7212942
                    ],
                    [
                      48.8234981,
                      30.0561568
                    ],
                    [
                      50.2046745,
                      21.7794445
                    ],
                    [
                      48.8234981,
                      13.4809656
                    ],
                    [
                      45.0531863,
                      6.77960383
                    ],
                    [
                      39.2042993,
                      2.0943643
                    ],
                    [
                      32.6661863,
                      0.543501037
                    ],
                    [
                      26.1607639,
                      2.0943643
                    ],
                    [
                      20.2764622,
                      6.77960383
                    ],
                    [
                      16.5415651,
                      13.4809656
                    ],
                    [
                      15.1740098,
                      21.7794445
                    ],
                    [
                      16.5415651,
                      30.0561568
                    ]
                  ],
                  "i": [
                    [
                      -0.24245509999999726,
                      -0.5414417
                    ],
                    [
                      9.3576743,
                      -14.357728800000004
                    ],
                    [
                      0.9207843000000011,
                      -1.9508226999999891
                    ],
                    [
                      1.4138669399999997,
                      -7.030580400000005
                    ],
                    [
                      0,
                      -9.182743000000002
                    ],
                    [
                      -1.7707389400000002,
                      -9.000448000000006
                    ],
                    [
                      -3.05656779,
                      -6.47553400000001
                    ],
                    [
                      -4.219807099999997,
                      -4.062173999999999
                    ],
                    [
                      0,
                      0
                    ],
                    [
                      -2.5144492999999954,
                      5.278376999999978
                    ],
                    [
                      -1.3675552999999994,
                      7.025138999999996
                    ],
                    [
                      0,
                      9.160977000000003
                    ],
                    [
                      1.7707388999999978,
                      9.003169
                    ],
                    [
                      3.0810857000000027,
                      6.461930300000006
                    ],
                    [
                      1.1741361000000055,
                      1.814782099999988
                    ],
                    [
                      -6.862294399999996,
                      15.712693599999998
                    ],
                    [
                      -0.18252230000000225,
                      0.5632081999999983
                    ],
                    [
                      0,
                      2.813320300000001
                    ],
                    [
                      0.8962663000000006,
                      2.6772797000000015
                    ],
                    [
                      1.6563219000000018,
                      1.9861932999999992
                    ],
                    [
                      2.2747184999999988,
                      1.1481829700000001
                    ],
                    [
                      2.2965122000000022,
                      0
                    ],
                    [
                      1.9995729000000004,
                      -1.00942153
                    ],
                    [
                      1.6072860999999996,
                      -1.95354354
                    ],
                    [
                      0.8417820999999996,
                      -2.4541730999999984
                    ],
                    [
                      0,
                      -2.8323661000000016
                    ],
                    [
                      -0.9289568999999993,
                      -2.652792399999999
                    ]
                  ],
                  "o": [
                    [
                      6.8840881,
                      15.712693599999998
                    ],
                    [
                      -1.1823086999999983,
                      1.814782099999988
                    ],
                    [
                      -3.05656779,
                      6.461930300000006
                    ],
                    [
                      -1.7680147300000002,
                      9.003169
                    ],
                    [
                      0,
                      9.160977000000003
                    ],
                    [
                      1.4138669399999997,
                      7.025138999999996
                    ],
                    [
                      2.5035524999999996,
                      5.278376999999978
                    ],
                    [
                      0,
                      0
                    ],
                    [
                      4.219807099999997,
                      -4.062173999999999
                    ],
                    [
                      3.0810857000000027,
                      -6.47553400000001
                    ],
                    [
                      1.7707388999999978,
                      -9.000448000000006
                    ],
                    [
                      0,
                      -9.182743000000002
                    ],
                    [
                      -1.3675552999999994,
                      -7.033301199999997
                    ],
                    [
                      -0.9207843000000011,
                      -1.9508226999999891
                    ],
                    [
                      -9.333156299999999,
                      -14.357728800000004
                    ],
                    [
                      0.24517930000000376,
                      -0.5414417
                    ],
                    [
                      0.8962663000000006,
                      -2.652792399999999
                    ],
                    [
                      0,
                      -2.8323661000000016
                    ],
                    [
                      -0.8281610000000015,
                      -2.4541730999999984
                    ],
                    [
                      -1.6100104000000002,
                      -1.95354354
                    ],
                    [
                      -2.032263400000005,
                      -1.00942153
                    ],
                    [
                      -2.252924799999999,
                      0
                    ],
                    [
                      -2.252924799999999,
                      1.1481829700000001
                    ],
                    [
                      -1.6427009000000012,
                      1.9834724899999996
                    ],
                    [
                      -0.9289568999999993,
                      2.674558899999999
                    ],
                    [
                      0,
                      2.813320300000001
                    ],
                    [
                      0.1988675999999998,
                      0.5632081999999983
                    ]
                  ]
                }
              }
            },
            {
              "ty": "st",
              "o": {
                "a": 0,
                "k": 0
              },
              "w": {
                "a": 0,
                "k": 0
              },
              "c": {
                "a": 0,
                "k": [
                  0,
                  0,
                  0,
                  0
                ]
              },
              "lc": 3,
              "lj": 1
            },
            {
              "ty": "fl",
              "o": {
                "a": 0,
                "k": 0
              },
              "c": {
                "a": 0,
                "k": [
                  0,
                  0,
                  0,
                  0
                ]
              },
              "r": 1
            },
            {
              "ty": "tr",
              "o": {
                "a": 0,
                "k": 100
              },
              "a": {
                "a": 0,
                "k": [
                  0,
                  0
                ]
              },
              "s": {
                "a": 0,
                "k": [
                  100,
                  100
                ]
              },
              "p": {
                "a": 0,
                "k": [
                  0,
                  0
                ]
              },
              "r": {
                "a": 0,
                "k": 0
              }
            }
          ]
        }
      ],
      "op": 86
    },
    {
      "ty": 4,
      "nm": "pin",
      "ip": 0,
      "st": 0,
      "ind": 8,
      "hix": 4,
      "ks": {
        "o": {
          "a": 0,
          "k": 100
        },
        "or": {
          "a": 0,
          "k": [
            0,
            0,
            0
          ]
        },
        "a": {
          "a": 0,
          "k": [
            32.5,
            98,
            0
          ]
        },
        "p": {
          "s": true,
          "x": {
            "a": 1,
            "k": [
              {
                "t": 0,
                "s": [
                  57.5
                ],
                "e": [
                  57.5
                ],
                "i": {
                  "x": [
                    1
                  ],
                  "y": [
                    1
                  ]
                },
                "o": {
                  "x": [
                    0
                  ],
                  "y": [
                    0
                  ]
                }
              },
              {
                "t": 71,
                "s": [
                  57.5
                ],
                "e": [
                  -25.5
                ],
                "i": {
                  "x": [
                    1
                  ],
                  "y": [
                    1
                  ]
                },
                "o": {
                  "x": [
                    0
                  ],
                  "y": [
                    0
                  ]
                }
              },
              {
                "t": 77
              }
            ]
          },
          "y": {
            "a": 1,
            "k": [
              {
                "t": 0,
                "s": [
                  628
                ],
                "e": [
                  628
                ],
                "i": {
                  "x": [
                    1
                  ],
                  "y": [
                    1
                  ]
                },
                "o": {
                  "x": [
                    0
                  ],
                  "y": [
                    0
                  ]
                }
              },
              {
                "t": 71,
                "s": [
                  628
                ],
                "e": [
                  697
                ],
                "i": {
                  "x": [
                    1
                  ],
                  "y": [
                    1
                  ]
                },
                "o": {
                  "x": [
                    0
                  ],
                  "y": [
                    0
                  ]
                }
              },
              {
                "t": 77
              }
            ]
          }
        },
        "rx": {
          "a": 0,
          "k": 0
        },
        "ry": {
          "a": 0,
          "k": 0
        },
        "rz": {
          "a": 1,
          "k": [
            {
              "t": 0,
              "s": [
                0
              ],
              "e": [
                0
              ],
              "i": {
                "x": [
                  1
                ],
                "y": [
                  1
                ]
              },
              "o": {
                "x": [
                  0
                ],
                "y": [
                  0
                ]
              }
            },
            {
              "t": 71,
              "s": [
                0
              ],
              "e": [
                136.9418990866959
              ],
              "i": {
                "x": [
                  1
                ],
                "y": [
                  1
                ]
              },
              "o": {
                "x": [
                  0
                ],
                "y": [
                  0
                ]
              }
            },
            {
              "t": 77
            }
          ]
        },
        "s": {
          "a": 0,
          "k": [
            110.00000000000001,
            110.00000000000001
          ]
        }
      },
      "shapes": [
        {
          "ty": "gr",
          "nm": "pin shape group",
          "it": [
            {
              "ty": "sh",
              "ks": {
                "a": 0,
                "k": {
                  "c": true,
                  "v": [
                    [
                      17.1872038,
                      31.7212942
                    ],
                    [
                      13.2207485,
                      79.9068878
                    ],
                    [
                      10.0715574,
                      85.5525742
                    ],
                    [
                      3.3481979,
                      105.901533
                    ],
                    [
                      0.692089487,
                      133.221213
                    ],
                    [
                      3.3481979,
                      160.540894
                    ],
                    [
                      10.0715574,
                      180.870807
                    ],
                    [
                      20.2437716,
                      195.010871
                    ],
                    [
                      45.1240158,
                      195.010871
                    ],
                    [
                      55.2935058,
                      180.870807
                    ],
                    [
                      61.9923474,
                      160.540894
                    ],
                    [
                      64.6729737,
                      133.221213
                    ],
                    [
                      61.9923474,
                      105.901533
                    ],
                    [
                      55.2935058,
                      85.5525742
                    ],
                    [
                      52.1334178,
                      79.9068878
                    ],
                    [
                      48.1805836,
                      31.7212942
                    ],
                    [
                      48.8234981,
                      30.0561568
                    ],
                    [
                      50.2046745,
                      21.7794445
                    ],
                    [
                      48.8234981,
                      13.4809656
                    ],
                    [
                      45.0531863,
                      6.77960383
                    ],
                    [
                      39.2042993,
                      2.0943643
                    ],
                    [
                      32.6661863,
                      0.543501037
                    ],
                    [
                      26.1607639,
                      2.0943643
                    ],
                    [
                      20.2764622,
                      6.77960383
                    ],
                    [
                      16.5415651,
                      13.4809656
                    ],
                    [
                      15.1740098,
                      21.7794445
                    ],
                    [
                      16.5415651,
                      30.0561568
                    ]
                  ],
                  "i": [
                    [
                      -0.24245509999999726,
                      -0.5414417
                    ],
                    [
                      9.3576743,
                      -14.357728800000004
                    ],
                    [
                      0.9207843000000011,
                      -1.9508226999999891
                    ],
                    [
                      1.4138669399999997,
                      -7.030580400000005
                    ],
                    [
                      0,
                      -9.182743000000002
                    ],
                    [
                      -1.7707389400000002,
                      -9.000448000000006
                    ],
                    [
                      -3.05656779,
                      -6.47553400000001
                    ],
                    [
                      -4.219807099999997,
                      -4.062173999999999
                    ],
                    [
                      0,
                      0
                    ],
                    [
                      -2.5144492999999954,
                      5.278376999999978
                    ],
                    [
                      -1.3675552999999994,
                      7.025138999999996
                    ],
                    [
                      0,
                      9.160977000000003
                    ],
                    [
                      1.7707388999999978,
                      9.003169
                    ],
                    [
                      3.0810857000000027,
                      6.461930300000006
                    ],
                    [
                      1.1741361000000055,
                      1.814782099999988
                    ],
                    [
                      -6.862294399999996,
                      15.712693599999998
                    ],
                    [
                      -0.18252230000000225,
                      0.5632081999999983
                    ],
                    [
                      0,
                      2.813320300000001
                    ],
                    [
                      0.8962663000000006,
                      2.6772797000000015
                    ],
                    [
                      1.6563219000000018,
                      1.9861932999999992
                    ],
                    [
                      2.2747184999999988,
                      1.1481829700000001
                    ],
                    [
                      2.2965122000000022,
                      0
                    ],
                    [
                      1.9995729000000004,
                      -1.00942153
                    ],
                    [
                      1.6072860999999996,
                      -1.95354354
                    ],
                    [
                      0.8417820999999996,
                      -2.4541730999999984
                    ],
                    [
                      0,
                      -2.8323661000000016
                    ],
                    [
                      -0.9289568999999993,
                      -2.652792399999999
                    ]
                  ],
                  "o": [
                    [
                      6.8840881,
                      15.712693599999998
                    ],
                    [
                      -1.1823086999999983,
                      1.814782099999988
                    ],
                    [
                      -3.05656779,
                      6.461930300000006
                    ],
                    [
                      -1.7680147300000002,
                      9.003169
                    ],
                    [
                      0,
                      9.160977000000003
                    ],
                    [
                      1.4138669399999997,
                      7.025138999999996
                    ],
                    [
                      2.5035524999999996,
                      5.278376999999978
                    ],
                    [
                      0,
                      0
                    ],
                    [
                      4.219807099999997,
                      -4.062173999999999
                    ],
                    [
                      3.0810857000000027,
                      -6.47553400000001
                    ],
                    [
                      1.7707388999999978,
                      -9.000448000000006
                    ],
                    [
                      0,
                      -9.182743000000002
                    ],
                    [
                      -1.3675552999999994,
                      -7.033301199999997
                    ],
                    [
                      -0.9207843000000011,
                      -1.9508226999999891
                    ],
                    [
                      -9.333156299999999,
                      -14.357728800000004
                    ],
                    [
                      0.24517930000000376,
                      -0.5414417
                    ],
                    [
                      0.8962663000000006,
                      -2.652792399999999
                    ],
                    [
                      0,
                      -2.8323661000000016
                    ],
                    [
                      -0.8281610000000015,
                      -2.4541730999999984
                    ],
                    [
                      -1.6100104000000002,
                      -1.95354354
                    ],
                    [
                      -2.032263400000005,
                      -1.00942153
                    ],
                    [
                      -2.252924799999999,
                      0
                    ],
                    [
                      -2.252924799999999,
                      1.1481829700000001
                    ],
                    [
                      -1.6427009000000012,
                      1.9834724899999996
                    ],
                    [
                      -0.9289568999999993,
                      2.674558899999999
                    ],
                    [
                      0,
                      2.813320300000001
                    ],
                    [
                      0.1988675999999998,
                      0.5632081999999983
                    ]
                  ]
                }
              }
            },
            {
              "ty": "st",
              "o": {
                "a": 0,
                "k": 0
              },
              "w": {
                "a": 0,
                "k": 0
              },
              "c": {
                "a": 0,
                "k": [
                  0,
                  0,
                  0,
                  0
                ]
              },
              "lc": 3,
              "lj": 1
            },
            {
              "ty": "gf",
              "o": {
                "a": 0,
                "k": 100
              },
              "r": 2,
              "g": {
                "p": 2,
                "k": {
                  "a": 0,
                  "k": [
                    0,
                    0.9803921568627451,
                    0.9803921568627451,
                    0.9803921568627451,
                    1,
                    0.9882352941176471,
                    0.9137254901960784,
                    0.8588235294117647
                  ]
                }
              },
              "t": 1,
              "s": {
                "a": 0,
                "k": [
                  32.33648685,
                  97.5054355
                ]
              },
              "e": {
                "a": 0,
                "k": [
                  32.33648685,
                  220.75240737765293
                ]
              }
            },
            {
              "ty": "tr",
              "o": {
                "a": 0,
                "k": 100
              },
              "a": {
                "a": 0,
                "k": [
                  0,
                  0
                ]
              },
              "s": {
                "a": 0,
                "k": [
                  100,
                  100
                ]
              },
              "p": {
                "a": 0,
                "k": [
                  1.71,
                  -0.56
                ]
              },
              "r": {
                "a": 0,
                "k": 1.1459155902616465
              }
            }
          ]
        },
        {
          "ty": "gr",
          "nm": "pin shape group",
          "it": [
            {
              "ty": "sh",
              "ks": {
                "a": 0,
                "k": {
                  "c": true,
                  "v": [
                    [
                      17.1872038,
                      31.7212942
                    ],
                    [
                      13.2207485,
                      79.9068878
                    ],
                    [
                      10.0715574,
                      85.5525742
                    ],
                    [
                      3.3481979,
                      105.901533
                    ],
                    [
                      0.692089487,
                      133.221213
                    ],
                    [
                      3.3481979,
                      160.540894
                    ],
                    [
                      10.0715574,
                      180.870807
                    ],
                    [
                      20.2437716,
                      195.010871
                    ],
                    [
                      45.1240158,
                      195.010871
                    ],
                    [
                      55.2935058,
                      180.870807
                    ],
                    [
                      61.9923474,
                      160.540894
                    ],
                    [
                      64.6729737,
                      133.221213
                    ],
                    [
                      61.9923474,
                      105.901533
                    ],
                    [
                      55.2935058,
                      85.5525742
                    ],
                    [
                      52.1334178,
                      79.9068878
                    ],
                    [
                      48.1805836,
                      31.7212942
                    ],
                    [
                      48.8234981,
                      30.0561568
                    ],
                    [
                      50.2046745,
                      21.7794445
                    ],
                    [
                      48.8234981,
                      13.4809656
                    ],
                    [
                      45.0531863,
                      6.77960383
                    ],
                    [
                      39.2042993,
                      2.0943643
                    ],
                    [
                      32.6661863,
                      0.543501037
                    ],
                    [
                      26.1607639,
                      2.0943643
                    ],
                    [
                      20.2764622,
                      6.77960383
                    ],
                    [
                      16.5415651,
                      13.4809656
                    ],
                    [
                      15.1740098,
                      21.7794445
                    ],
                    [
                      16.5415651,
                      30.0561568
                    ]
                  ],
                  "i": [
                    [
                      -0.24245509999999726,
                      -0.5414417
                    ],
                    [
                      9.3576743,
                      -14.357728800000004
                    ],
                    [
                      0.9207843000000011,
                      -1.9508226999999891
                    ],
                    [
                      1.4138669399999997,
                      -7.030580400000005
                    ],
                    [
                      0,
                      -9.182743000000002
                    ],
                    [
                      -1.7707389400000002,
                      -9.000448000000006
                    ],
                    [
                      -3.05656779,
                      -6.47553400000001
                    ],
                    [
                      -4.219807099999997,
                      -4.062173999999999
                    ],
                    [
                      0,
                      0
                    ],
                    [
                      -2.5144492999999954,
                      5.278376999999978
                    ],
                    [
                      -1.3675552999999994,
                      7.025138999999996
                    ],
                    [
                      0,
                      9.160977000000003
                    ],
                    [
                      1.7707388999999978,
                      9.003169
                    ],
                    [
                      3.0810857000000027,
                      6.461930300000006
                    ],
                    [
                      1.1741361000000055,
                      1.814782099999988
                    ],
                    [
                      -6.862294399999996,
                      15.712693599999998
                    ],
                    [
                      -0.18252230000000225,
                      0.5632081999999983
                    ],
                    [
                      0,
                      2.813320300000001
                    ],
                    [
                      0.8962663000000006,
                      2.6772797000000015
                    ],
                    [
                      1.6563219000000018,
                      1.9861932999999992
                    ],
                    [
                      2.2747184999999988,
                      1.1481829700000001
                    ],
                    [
                      2.2965122000000022,
                      0
                    ],
                    [
                      1.9995729000000004,
                      -1.00942153
                    ],
                    [
                      1.6072860999999996,
                      -1.95354354
                    ],
                    [
                      0.8417820999999996,
                      -2.4541730999999984
                    ],
                    [
                      0,
                      -2.8323661000000016
                    ],
                    [
                      -0.9289568999999993,
                      -2.652792399999999
                    ]
                  ],
                  "o": [
                    [
                      6.8840881,
                      15.712693599999998
                    ],
                    [
                      -1.1823086999999983,
                      1.814782099999988
                    ],
                    [
                      -3.05656779,
                      6.461930300000006
                    ],
                    [
                      -1.7680147300000002,
                      9.003169
                    ],
                    [
                      0,
                      9.160977000000003
                    ],
                    [
                      1.4138669399999997,
                      7.025138999999996
                    ],
                    [
                      2.5035524999999996,
                      5.278376999999978
                    ],
                    [
                      0,
                      0
                    ],
                    [
                      4.219807099999997,
                      -4.062173999999999
                    ],
                    [
                      3.0810857000000027,
                      -6.47553400000001
                    ],
                    [
                      1.7707388999999978,
                      -9.000448000000006
                    ],
                    [
                      0,
                      -9.182743000000002
                    ],
                    [
                      -1.3675552999999994,
                      -7.033301199999997
                    ],
                    [
                      -0.9207843000000011,
                      -1.9508226999999891
                    ],
                    [
                      -9.333156299999999,
                      -14.357728800000004
                    ],
                    [
                      0.24517930000000376,
                      -0.5414417
                    ],
                    [
                      0.8962663000000006,
                      -2.652792399999999
                    ],
                    [
                      0,
                      -2.8323661000000016
                    ],
                    [
                      -0.8281610000000015,
                      -2.4541730999999984
                    ],
                    [
                      -1.6100104000000002,
                      -1.95354354
                    ],
                    [
                      -2.032263400000005,
                      -1.00942153
                    ],
                    [
                      -2.252924799999999,
                      0
                    ],
                    [
                      -2.252924799999999,
                      1.1481829700000001
                    ],
                    [
                      -1.6427009000000012,
                      1.9834724899999996
                    ],
                    [
                      -0.9289568999999993,
                      2.674558899999999
                    ],
                    [
                      0,
                      2.813320300000001
                    ],
                    [
                      0.1988675999999998,
                      0.5632081999999983
                    ]
                  ]
                }
              }
            },
            {
              "ty": "st",
              "o": {
                "a": 0,
                "k": 0
              },
              "w": {
                "a": 0,
                "k": 0
              },
              "c": {
                "a": 0,
                "k": [
                  0,
                  0,
                  0,
                  0
                ]
              },
              "lc": 3,
              "lj": 1
            },
            {
              "ty": "fl",
              "o": {
                "a": 0,
                "k": 0
              },
              "c": {
                "a": 0,
                "k": [
                  0,
                  0,
                  0,
                  0
                ]
              },
              "r": 1
            },
            {
              "ty": "tr",
              "o": {
                "a": 0,
                "k": 100
              },
              "a": {
                "a": 0,
                "k": [
                  0,
                  0
                ]
              },
              "s": {
                "a": 0,
                "k": [
                  100,
                  100
                ]
              },
              "p": {
                "a": 0,
                "k": [
                  0,
                  0
                ]
              },
              "r": {
                "a": 0,
                "k": 0
              }
            }
          ]
        }
      ],
      "op": 86
    },
    {
      "ty": 4,
      "nm": "pin",
      "ip": 0,
      "st": 0,
      "ind": 7,
      "hix": 5,
      "ks": {
        "o": {
          "a": 0,
          "k": 100
        },
        "or": {
          "a": 0,
          "k": [
            0,
            0,
            0
          ]
        },
        "a": {
          "a": 0,
          "k": [
            32.5,
            98,
            0
          ]
        },
        "p": {
          "s": true,
          "x": {
            "a": 1,
            "k": [
              {
                "t": 0,
                "s": [
                  250.5
                ],
                "e": [
                  250.5
                ],
                "i": {
                  "x": [
                    1
                  ],
                  "y": [
                    1
                  ]
                },
                "o": {
                  "x": [
                    0
                  ],
                  "y": [
                    0
                  ]
                }
              },
              {
                "t": 67,
                "s": [
                  250.5
                ],
                "e": [
                  428.5
                ],
                "i": {
                  "x": [
                    1
                  ],
                  "y": [
                    1
                  ]
                },
                "o": {
                  "x": [
                    0
                  ],
                  "y": [
                    0
                  ]
                }
              },
              {
                "t": 77
              }
            ]
          },
          "y": {
            "a": 1,
            "k": [
              {
                "t": 0,
                "s": [
                  548
                ],
                "e": [
                  548
                ],
                "i": {
                  "x": [
                    1
                  ],
                  "y": [
                    1
                  ]
                },
                "o": {
                  "x": [
                    0
                  ],
                  "y": [
                    0
                  ]
                }
              },
              {
                "t": 67,
                "s": [
                  548
                ],
                "e": [
                  432
                ],
                "i": {
                  "x": [
                    1
                  ],
                  "y": [
                    1
                  ]
                },
                "o": {
                  "x": [
                    0
                  ],
                  "y": [
                    0
                  ]
                }
              },
              {
                "t": 77
              }
            ]
          }
        },
        "rx": {
          "a": 0,
          "k": 0
        },
        "ry": {
          "a": 0,
          "k": 0
        },
        "rz": {
          "a": 1,
          "k": [
            {
              "t": 0,
              "s": [
                0
              ],
              "e": [
                0
              ],
              "i": {
                "x": [
                  1
                ],
                "y": [
                  1
                ]
              },
              "o": {
                "x": [
                  0
                ],
                "y": [
                  0
                ]
              }
            },
            {
              "t": 67,
              "s": [
                0
              ],
              "e": [
                171.88733853924697
              ],
              "i": {
                "x": [
                  1
                ],
                "y": [
                  1
                ]
              },
              "o": {
                "x": [
                  0
                ],
                "y": [
                  0
                ]
              }
            },
            {
              "t": 77
            }
          ]
        },
        "s": {
          "a": 0,
          "k": [
            105,
            105
          ]
        }
      },
      "shapes": [
        {
          "ty": "gr",
          "nm": "pin shape group",
          "it": [
            {
              "ty": "sh",
              "ks": {
                "a": 0,
                "k": {
                  "c": true,
                  "v": [
                    [
                      17.1872038,
                      31.7212942
                    ],
                    [
                      13.2207485,
                      79.9068878
                    ],
                    [
                      10.0715574,
                      85.5525742
                    ],
                    [
                      3.3481979,
                      105.901533
                    ],
                    [
                      0.692089487,
                      133.221213
                    ],
                    [
                      3.3481979,
                      160.540894
                    ],
                    [
                      10.0715574,
                      180.870807
                    ],
                    [
                      20.2437716,
                      195.010871
                    ],
                    [
                      45.1240158,
                      195.010871
                    ],
                    [
                      55.2935058,
                      180.870807
                    ],
                    [
                      61.9923474,
                      160.540894
                    ],
                    [
                      64.6729737,
                      133.221213
                    ],
                    [
                      61.9923474,
                      105.901533
                    ],
                    [
                      55.2935058,
                      85.5525742
                    ],
                    [
                      52.1334178,
                      79.9068878
                    ],
                    [
                      48.1805836,
                      31.7212942
                    ],
                    [
                      48.8234981,
                      30.0561568
                    ],
                    [
                      50.2046745,
                      21.7794445
                    ],
                    [
                      48.8234981,
                      13.4809656
                    ],
                    [
                      45.0531863,
                      6.77960383
                    ],
                    [
                      39.2042993,
                      2.0943643
                    ],
                    [
                      32.6661863,
                      0.543501037
                    ],
                    [
                      26.1607639,
                      2.0943643
                    ],
                    [
                      20.2764622,
                      6.77960383
                    ],
                    [
                      16.5415651,
                      13.4809656
                    ],
                    [
                      15.1740098,
                      21.7794445
                    ],
                    [
                      16.5415651,
                      30.0561568
                    ]
                  ],
                  "i": [
                    [
                      -0.24245509999999726,
                      -0.5414417
                    ],
                    [
                      9.3576743,
                      -14.357728800000004
                    ],
                    [
                      0.9207843000000011,
                      -1.9508226999999891
                    ],
                    [
                      1.4138669399999997,
                      -7.030580400000005
                    ],
                    [
                      0,
                      -9.182743000000002
                    ],
                    [
                      -1.7707389400000002,
                      -9.000448000000006
                    ],
                    [
                      -3.05656779,
                      -6.47553400000001
                    ],
                    [
                      -4.219807099999997,
                      -4.062173999999999
                    ],
                    [
                      0,
                      0
                    ],
                    [
                      -2.5144492999999954,
                      5.278376999999978
                    ],
                    [
                      -1.3675552999999994,
                      7.025138999999996
                    ],
                    [
                      0,
                      9.160977000000003
                    ],
                    [
                      1.7707388999999978,
                      9.003169
                    ],
                    [
                      3.0810857000000027,
                      6.461930300000006
                    ],
                    [
                      1.1741361000000055,
                      1.814782099999988
                    ],
                    [
                      -6.862294399999996,
                      15.712693599999998
                    ],
                    [
                      -0.18252230000000225,
                      0.5632081999999983
                    ],
                    [
                      0,
                      2.813320300000001
                    ],
                    [
                      0.8962663000000006,
                      2.6772797000000015
                    ],
                    [
                      1.6563219000000018,
                      1.9861932999999992
                    ],
                    [
                      2.2747184999999988,
                      1.1481829700000001
                    ],
                    [
                      2.2965122000000022,
                      0
                    ],
                    [
                      1.9995729000000004,
                      -1.00942153
                    ],
                    [
                      1.6072860999999996,
                      -1.95354354
                    ],
                    [
                      0.8417820999999996,
                      -2.4541730999999984
                    ],
                    [
                      0,
                      -2.8323661000000016
                    ],
                    [
                      -0.9289568999999993,
                      -2.652792399999999
                    ]
                  ],
                  "o": [
                    [
                      6.8840881,
                      15.712693599999998
                    ],
                    [
                      -1.1823086999999983,
                      1.814782099999988
                    ],
                    [
                      -3.05656779,
                      6.461930300000006
                    ],
                    [
                      -1.7680147300000002,
                      9.003169
                    ],
                    [
                      0,
                      9.160977000000003
                    ],
                    [
                      1.4138669399999997,
                      7.025138999999996
                    ],
                    [
                      2.5035524999999996,
                      5.278376999999978
                    ],
                    [
                      0,
                      0
                    ],
                    [
                      4.219807099999997,
                      -4.062173999999999
                    ],
                    [
                      3.0810857000000027,
                      -6.47553400000001
                    ],
                    [
                      1.7707388999999978,
                      -9.000448000000006
                    ],
                    [
                      0,
                      -9.182743000000002
                    ],
                    [
                      -1.3675552999999994,
                      -7.033301199999997
                    ],
                    [
                      -0.9207843000000011,
                      -1.9508226999999891
                    ],
                    [
                      -9.333156299999999,
                      -14.357728800000004
                    ],
                    [
                      0.24517930000000376,
                      -0.5414417
                    ],
                    [
                      0.8962663000000006,
                      -2.652792399999999
                    ],
                    [
                      0,
                      -2.8323661000000016
                    ],
                    [
                      -0.8281610000000015,
                      -2.4541730999999984
                    ],
                    [
                      -1.6100104000000002,
                      -1.95354354
                    ],
                    [
                      -2.032263400000005,
                      -1.00942153
                    ],
                    [
                      -2.252924799999999,
                      0
                    ],
                    [
                      -2.252924799999999,
                      1.1481829700000001
                    ],
                    [
                      -1.6427009000000012,
                      1.9834724899999996
                    ],
                    [
                      -0.9289568999999993,
                      2.674558899999999
                    ],
                    [
                      0,
                      2.813320300000001
                    ],
                    [
                      0.1988675999999998,
                      0.5632081999999983
                    ]
                  ]
                }
              }
            },
            {
              "ty": "st",
              "o": {
                "a": 0,
                "k": 0
              },
              "w": {
                "a": 0,
                "k": 0
              },
              "c": {
                "a": 0,
                "k": [
                  0,
                  0,
                  0,
                  0
