{"ip":0,"fr":60,"v":"4.11.1","layers":[{"nm":"baby7","ip":0,"st":0,"ind":37,"hix":19,"ty":4,"ks":{"o":{"a":0,"k":0},"or":{"a":0,"k":[0,0,0]},"a":{"a":0,"k":[106,156,0]},"p":{"s":true,"x":{"a":0,"k":-38},"y":{"a":0,"k":-132}},"rx":{"a":0,"k":0},"ry":{"a":0,"k":0},"rz":{"a":0,"k":0},"s":{"a":0,"k":[30,30]}},"shapes":[{"ty":"gr","it":[{"ty":"sh","ks":{"a":0,"k":{"c":true,"v":[[188.4,206.8],[178.4,204.2],[142.1,166.7],[140.1,167.2],[146.8,184.2],[156.5,199.5],[171.2,209.6]],"i":[[-4.700000000000017,3.6999999999999886],[3,2],[9.200000000000017,14.900000000000006],[0.700000000000017,-0.19999999999998863],[-2.9000000000000057,-5.399999999999977],[-3.9000000000000057,-4.599999999999994],[-5.799999999999983,-1.6999999999999886]],"o":[[-3.3000000000000114,1.299999999999983],[-14.599999999999994,-9.699999999999989],[-0.6999999999999886,0.20000000000001705],[1.0999999999999943,6],[2.799999999999983,5.300000000000011],[3.9000000000000057,4.599999999999994],[5.800000000000011,1.5999999999999943]]}}},{"ty":"st","o":{"a":0,"k":0},"w":{"a":0,"k":0},"c":{"a":0,"k":[0,0,0,0]},"lc":3,"lj":1,"d":[]},{"o":{"a":0,"k":100},"r":1,"ty":"fl","c":{"a":0,"k":[0.8862745098039215,0.6352941176470588,0.5254901960784314,1]}},{"o":{"a":0,"k":100},"a":{"a":0,"k":[0,0]},"s":{"a":0,"k":[100,100]},"p":{"a":0,"k":[0,0]},"r":{"a":0,"k":0},"ty":"tr"}]},{"ty":"gr","it":[{"ty":"sh","ks":{"a":0,"k":{"c":true,"v":[[101.1,216.2],[99.5,215.6],[95.1,217.7],[94.8,218.2],[97.1,218.7]],"i":[[-0.6999999999999886,1.6000000000000227],[0.5999999999999943,-0.9000000000000057],[1.5,-0.29999999999998295],[-0.5,-0.29999999999998295],[-0.6999999999999886,0]],"o":[[0.6000000000000085,-1.299999999999983],[-0.7000000000000028,1.8000000000000114],[-0.29999999999999716,0.10000000000002274],[0.7000000000000028,0.4000000000000057],[1.7000000000000028,-0.09999999999999432]]}}},{"ty":"st","o":{"a":0,"k":0},"w":{"a":0,"k":0},"c":{"a":0,"k":[0,0,0,0]},"lc":3,"lj":1,"d":[]},{"o":{"a":0,"k":100},"r":1,"ty":"fl","c":{"a":0,"k":[0.6431372549019608,0.2980392156862745,0.2823529411764706,1]}},{"o":{"a":0,"k":100},"a":{"a":0,"k":[0,0]},"s":{"a":0,"k":[100,100]},"p":{"a":0,"k":[0,0]},"r":{"a":0,"k":0},"ty":"tr"}]},{"ty":"gr","it":[{"ty":"sh","ks":{"a":0,"k":{"c":true,"v":[[98.4,209.6],[97.7,208.4],[96.6,209.5],[93,212.9],[94.5,213.6]],"i":[[-0.5,1.8000000000000114],[0.7000000000000028,0],[0.20000000000000284,-0.5999999999999943],[1.5999999999999943,-0.5999999999999943],[-0.7999999999999972,0.20000000000001705]],"o":[[0.19999999999998863,-0.5999999999999943],[-0.7000000000000028,0],[-0.5999999999999943,1.5999999999999943],[-2,0.6999999999999886],[1.7999999999999972,-0.5999999999999943]]}}},{"ty":"st","o":{"a":0,"k":0},"w":{"a":0,"k":0},"c":{"a":0,"k":[0,0,0,0]},"lc":3,"lj":1,"d":[]},{"o":{"a":0,"k":100},"r":1,"ty":"fl","c":{"a":0,"k":[0.6431372549019608,0.2980392156862745,0.2823529411764706,1]}},{"o":{"a":0,"k":100},"a":{"a":0,"k":[0,0]},"s":{"a":0,"k":[100,100]},"p":{"a":0,"k":[0,0]},"r":{"a":0,"k":0},"ty":"tr"}]},{"ty":"gr","it":[{"ty":"sh","ks":{"a":0,"k":{"c":true,"v":[[84.8,203.2],[82.6,204.3],[82.7,205.3],[85.3,204.9],[89,204.6],[90.9,209.6],[86.8,214],[85.3,215],[87.5,214.4],[92.1,210],[91,204]],"i":[[2.200000000000003,-0.6999999999999886],[0.6000000000000085,-0.6000000000000227],[-0.29999999999999716,-0.10000000000002274],[-0.7000000000000028,0.19999999999998863],[-1.2000000000000028,-0.5],[0.5999999999999943,-1.799999999999983],[1.7999999999999972,-1],[-0.09999999999999432,0],[-0.5999999999999943,0.29999999999998295],[-0.7999999999999972,2],[1.5999999999999943,1.5999999999999943]],"o":[[-0.7000000000000028,0.30000000000001137],[-0.19999999999998863,0.19999999999998863],[0.7999999999999972,0.19999999999998863],[1.2000000000000028,-0.4000000000000057],[2,0.700000000000017],[-0.7000000000000028,2],[-0.09999999999999432,0.09999999999999432],[0.6000000000000085,0.19999999999998863],[2,-0.8000000000000114],[0.8000000000000114,-2],[-1.5999999999999943,-1.8000000000000114]]}}},{"ty":"st","o":{"a":0,"k":0},"w":{"a":0,"k":0},"c":{"a":0,"k":[0,0,0,0]},"lc":3,"lj":1,"d":[]},{"o":{"a":0,"k":100},"r":1,"ty":"fl","c":{"a":0,"k":[0.6431372549019608,0.2980392156862745,0.2823529411764706,1]}},{"o":{"a":0,"k":100},"a":{"a":0,"k":[0,0]},"s":{"a":0,"k":[100,100]},"p":{"a":0,"k":[0,0]},"r":{"a":0,"k":0},"ty":"tr"}]},{"ty":"gr","it":[{"ty":"sh","ks":{"a":0,"k":{"c":true,"v":[[82.4,209.4],[80.6,211.2],[82.7,211.1],[84.8,211.8],[84.2,217.3],[82.4,219.8],[81.6,221],[80.7,221.7],[82.1,221.5],[84,219.6],[86.7,215.8]],"i":[[3.5999999999999943,-0.700000000000017],[-1.0999999999999943,-0.8999999999999773],[-0.29999999999999716,0],[-0.5,-0.700000000000017],[1,-1.5],[0.5999999999999943,-0.8000000000000114],[0.30000000000001137,-0.4000000000000057],[0,-0.19999999999998863],[-0.09999999999999432,0.09999999999999432],[-0.5999999999999943,0.5999999999999943],[-0.6000000000000085,1.3999999999999773]],"o":[[-0.5,0.09999999999999432],[0.20000000000000284,0.4000000000000057],[0.7999999999999972,-0.09999999999999432],[1.4000000000000057,1.6999999999999886],[-0.6000000000000085,0.8999999999999773],[-0.20000000000000284,0.39999999999997726],[-0.09999999999999432,0.09999999999999432],[-0.10000000000000853,0.5],[0.7000000000000028,-0.5],[1.0999999999999943,-1.1999999999999886],[1.0999999999999943,-3.200000000000017]]}}},{"ty":"st","o":{"a":0,"k":0},"w":{"a":0,"k":0},"c":{"a":0,"k":[0,0,0,0]},"lc":3,"lj":1,"d":[]},{"o":{"a":0,"k":100},"r":1,"ty":"fl","c":{"a":0,"k":[0.6431372549019608,0.2980392156862745,0.2823529411764706,1]}},{"o":{"a":0,"k":100},"a":{"a":0,"k":[0,0]},"s":{"a":0,"k":[100,100]},"p":{"a":0,"k":[0,0]},"r":{"a":0,"k":0},"ty":"tr"}]},{"ty":"gr","it":[{"ty":"sh","ks":{"a":0,"k":{"c":true,"v":[[74,215.6],[72.2,218.1],[74.3,217.3],[77.4,216.6],[78.8,227.8],[77.3,229.2],[79.3,228.3],[82.1,222.5],[80.3,215.9]],"i":[[2,-1],[-1.4000000000000057,-0.5999999999999943],[-0.29999999999999716,0.09999999999999432],[-1.1000000000000085,-0.19999999999998863],[2.1000000000000085,-2.700000000000017],[0,-0.09999999999999432],[-0.09999999999999432,0.09999999999999432],[-0.3999999999999915,2.0999999999999943],[1.9000000000000057,1.5999999999999943]],"o":[[-0.4000000000000057,0.20000000000001705],[0.29999999999999716,0.30000000000001137],[1,-0.5],[5.299999999999997,0.5],[-0.09999999999999432,0.19999999999998863],[0.10000000000000853,0.4000000000000057],[1.6000000000000085,-1.4000000000000057],[0.5,-2.3000000000000114],[-1.7000000000000028,-1.4000000000000057]]}}},{"ty":"st","o":{"a":0,"k":0},"w":{"a":0,"k":0},"c":{"a":0,"k":[0,0,0,0]},"lc":3,"lj":1,"d":[]},{"o":{"a":0,"k":100},"r":1,"ty":"fl","c":{"a":0,"k":[0.6431372549019608,0.2980392156862745,0.2823529411764706,1]}},{"o":{"a":0,"k":100},"a":{"a":0,"k":[0,0]},"s":{"a":0,"k":[100,100]},"p":{"a":0,"k":[0,0]},"r":{"a":0,"k":0},"ty":"tr"}]},{"ty":"gr","it":[{"ty":"sh","ks":{"a":0,"k":{"c":true,"v":[[59,252.6],[58.5,251],[57.3,253.4],[60.4,259.7],[62.2,260.8],[61.4,259.3]],"i":[[-0.29999999999999716,2.200000000000017],[0.5,0.19999999999998863],[0,-0.700000000000017],[-1.6999999999999957,-1.599999999999966],[-0.5,0.19999999999998863],[0,0.0999999999999659]],"o":[[0.10000000000000142,-0.4000000000000057],[-1.1000000000000014,-0.19999999999998863],[0.20000000000000284,2.4000000000000057],[0.30000000000000426,0.30000000000001137],[0.29999999999999716,-0.10000000000002274],[-1.1000000000000014,-1.6999999999999886]]}}},{"ty":"st","o":{"a":0,"k":0},"w":{"a":0,"k":0},"c":{"a":0,"k":[0,0,0,0]},"lc":3,"lj":1,"d":[]},{"o":{"a":0,"k":100},"r":1,"ty":"fl","c":{"a":0,"k":[0.6431372549019608,0.2980392156862745,0.2823529411764706,1]}},{"o":{"a":0,"k":100},"a":{"a":0,"k":[0,0]},"s":{"a":0,"k":[100,100]},"p":{"a":0,"k":[0,0]},"r":{"a":0,"k":0},"ty":"tr"}]},{"ty":"gr","it":[{"ty":"sh","ks":{"a":0,"k":{"c":true,"v":[[69.2,249.5],[70.7,248.9],[70.5,248],[66.9,248.7],[66,257.4],[67.5,259.7],[67.1,257.6]],"i":[[-3.6000000000000085,0.8000000000000114],[-0.29999999999999716,0.4000000000000057],[0.29999999999999716,0.09999999999999432],[0.7999999999999972,-0.5999999999999943],[-1.0999999999999943,-2.599999999999966],[-0.7000000000000028,-0.39999999999997726],[0,0.0999999999999659]],"o":[[0.3999999999999915,-0.09999999999999432],[0.09999999999999432,-0.20000000000001705],[-1,-0.5999999999999943],[-2.700000000000003,1.9000000000000057],[0.29999999999999716,0.7000000000000455],[0.20000000000000284,0.10000000000002274],[-0.6999999999999886,-2.8000000000000114]]}}},{"ty":"st","o":{"a":0,"k":0},"w":{"a":0,"k":0},"c":{"a":0,"k":[0,0,0,0]},"lc":3,"lj":1,"d":[]},{"o":{"a":0,"k":100},"r":1,"ty":"fl","c":{"a":0,"k":[0.6431372549019608,0.2980392156862745,0.2823529411764706,1]}},{"o":{"a":0,"k":100},"a":{"a":0,"k":[0,0]},"s":{"a":0,"k":[100,100]},"p":{"a":0,"k":[0,0]},"r":{"a":0,"k":0},"ty":"tr"}]},{"ty":"gr","it":[{"ty":"sh","ks":{"a":0,"k":{"c":true,"v":[[78.8,250.7],[80.7,249.7],[77.3,249.2],[73.9,252],[74.4,256.7],[76.8,260.2],[76.8,259.6],[76,257.7],[75.1,253.2]],"i":[[-1.5,0.10000000000002274],[0.3999999999999915,1],[0.7000000000000028,-0.09999999999999432],[0.5999999999999943,-1.4000000000000057],[-0.6000000000000085,-1.5],[-1.2000000000000028,-0.6999999999999886],[0.20000000000000284,0.19999999999998863],[0.20000000000000284,0.6999999999999886],[-0.29999999999999716,1.4000000000000057]],"o":[[0.5,0],[-0.4000000000000057,-1],[-1.5,0.4000000000000057],[-0.7000000000000028,1.5999999999999943],[0.5,1.1999999999999886],[0.6000000000000085,0.30000000000001137],[-0.29999999999999716,-0.6000000000000227],[-0.5,-1.3000000000000114],[0.5,-1.5999999999999943]]}}},{"ty":"st","o":{"a":0,"k":0},"w":{"a":0,"k":0},"c":{"a":0,"k":[0,0,0,0]},"lc":3,"lj":1,"d":[]},{"o":{"a":0,"k":100},"r":1,"ty":"fl","c":{"a":0,"k":[0.6431372549019608,0.2980392156862745,0.2823529411764706,1]}},{"o":{"a":0,"k":100},"a":{"a":0,"k":[0,0]},"s":{"a":0,"k":[100,100]},"p":{"a":0,"k":[0,0]},"r":{"a":0,"k":0},"ty":"tr"}]},{"ty":"gr","it":[{"ty":"sh","ks":{"a":0,"k":{"c":true,"v":[[85.8,253.3],[85.6,251.8],[84,253.1],[83.6,258.6],[84.9,260.6],[85,259.7]],"i":[[-1.2000000000000028,1.8999999999999773],[0.6000000000000085,0.19999999999998863],[0.20000000000000284,-0.4000000000000057],[-0.5999999999999943,-1.8000000000000114],[-0.7000000000000028,-0.4000000000000341],[0.09999999999999432,0.19999999999998863]],"o":[[0.29999999999999716,-0.5],[-0.5999999999999943,-0.6000000000000227],[-0.7999999999999972,1.5999999999999943],[0.20000000000000284,0.6999999999999886],[0.5,0.2999999999999545],[-0.5,-2.3000000000000114]]}}},{"ty":"st","o":{"a":0,"k":0},"w":{"a":0,"k":0},"c":{"a":0,"k":[0,0,0,0]},"lc":3,"lj":1,"d":[]},{"o":{"a":0,"k":100},"r":1,"ty":"fl","c":{"a":0,"k":[0.6431372549019608,0.2980392156862745,0.2823529411764706,1]}},{"o":{"a":0,"k":100},"a":{"a":0,"k":[0,0]},"s":{"a":0,"k":[100,100]},"p":{"a":0,"k":[0,0]},"r":{"a":0,"k":0},"ty":"tr"}]},{"ty":"gr","it":[{"ty":"sh","ks":{"a":0,"k":{"c":true,"v":[[14.8,4.2],[6.9,3.4],[5.4,5.4],[6.8,7],[13.4,8],[15,7.4],[15.8,5.9]],"i":[[0.5,0.39999999999999947],[2.5,-1.2999999999999998],[-0.10000000000000053,-0.9000000000000004],[-0.5999999999999996,-0.40000000000000036],[-2.200000000000001,0.40000000000000036],[-0.40000000000000036,0.2999999999999998],[0,0.5999999999999996]],"o":[[-2.200000000000001,-1.7000000000000002],[-0.8000000000000007,0.3999999999999999],[0.09999999999999964,0.6999999999999993],[2.000000000000001,1.0999999999999996],[0.5999999999999996,-0.09999999999999964],[0.5,-0.40000000000000036],[0,-0.7000000000000002]]}}},{"ty":"st","o":{"a":0,"k":0},"w":{"a":0,"k":0},"c":{"a":0,"k":[0,0,0,0]},"lc":3,"lj":1,"d":[]},{"o":{"a":0,"k":100},"r":1,"ty":"fl","c":{"a":0,"k":[0.9137254901960784,0.7725490196078432,0.7137254901960784,1]}},{"o":{"a":0,"k":100},"a":{"a":0,"k":[0,0]},"s":{"a":0,"k":[100,100]},"p":{"a":0,"k":[92,65]},"r":{"a":0,"k":0},"ty":"tr"}]},{"ty":"gr","it":[{"ty":"sh","ks":{"a":0,"k":{"c":true,"v":[[15.3,9.8],[17.2,8.7],[18.7,10.2],[19.2,12.4],[14.1,13]],"i":[[-0.7000000000000011,0.8999999999999986],[-0.6999999999999993,-0.09999999999999964],[-0.1999999999999993,-0.6999999999999993],[-0.3000000000000007,-0.7000000000000011],[1.700000000000001,0.1999999999999993]],"o":[[0.5,-0.6000000000000014],[0.6999999999999993,0.10000000000000142],[0.1999999999999993,0.7000000000000011],[-1.5999999999999979,0.5999999999999996],[0.09999999999999964,-1.1999999999999993]]}}},{"ty":"st","o":{"a":0,"k":0},"w":{"a":0,"k":0},"c":{"a":0,"k":[0,0,0,0]},"lc":3,"lj":1,"d":[]},{"o":{"a":0,"k":100},"r":1,"ty":"fl","c":{"a":0,"k":[0.788235294117647,0.4588235294117647,0.3411764705882353,1]}},{"o":{"a":0,"k":100},"a":{"a":0,"k":[0,0]},"s":{"a":0,"k":[100,100]},"p":{"a":0,"k":[92,65]},"r":{"a":0,"k":0},"ty":"tr"}]},{"ty":"gr","it":[{"ty":"sh","ks":{"a":0,"k":{"c":true,"v":[[7.5,10.4],[4.5,10.4],[3.6,7.9],[6.2,7.9]],"i":[[-0.20000000000000018,-0.9000000000000004],[0.9000000000000004,0.40000000000000036],[-0.6000000000000001,0.7999999999999989],[-0.7999999999999998,-0.7000000000000002]],"o":[[-1,0.29999999999999893],[-0.8999999999999999,-0.40000000000000036],[0.6000000000000001,-0.8000000000000007],[0.7000000000000002,0.5999999999999996]]}}},{"ty":"st","o":{"a":0,"k":0},"w":{"a":0,"k":0},"c":{"a":0,"k":[0,0,0,0]},"lc":3,"lj":1,"d":[]},{"o":{"a":0,"k":100},"r":1,"ty":"fl","c":{"a":0,"k":[0.788235294117647,0.4588235294117647,0.3411764705882353,1]}},{"o":{"a":0,"k":100},"a":{"a":0,"k":[0,0]},"s":{"a":0,"k":[100,100]},"p":{"a":0,"k":[92,65]},"r":{"a":0,"k":0},"ty":"tr"}]},{"ty":"gr","it":[{"ty":"sh","ks":{"a":0,"k":{"c":true,"v":[[20.7,14.7],[24.9,11.4],[24.3,10.7],[22.4,12.3],[8.7,13],[3.2,9.8],[3.5,3.9],[10,2.6],[13.2,2],[15.3,0.8],[11.5,1.8],[6.6,1.8],[1.2,8.9],[9.2,15]],"i":[[-3.6999999999999993,0.9000000000000004],[-0.3999999999999986,1.799999999999999],[0.3999999999999986,-0.29999999999999893],[0.7000000000000028,-0.40000000000000036],[4.100000000000001,1.0999999999999996],[1.2000000000000002,1.799999999999999],[-1.8,1.4],[-2.0999999999999996,0.10000000000000009],[-1,0.3999999999999999],[0,0.09999999999999998],[0.3000000000000007,0],[1.5999999999999996,-0.10000000000000009],[-1.0999999999999999,-3.9000000000000004],[-3.3999999999999995,-0.8000000000000007]],"o":[[1.6999999999999993,-0.3999999999999986],[0.10000000000000142,-0.3000000000000007],[-0.6999999999999993,0.40000000000000036],[-3.8999999999999986,2.0999999999999996],[-1.9999999999999991,-0.5],[-1.2000000000000002,-1.700000000000001],[1.7999999999999998,-1.5],[1.0999999999999996,-0.10000000000000009],[0.20000000000000107,-0.10000000000000009],[0,0],[-1.5999999999999996,0.09999999999999987],[-3.8,0.19999999999999996],[1.0000000000000002,3.5999999999999996],[3.700000000000001,0.5999999999999996]]}}},{"ty":"st","o":{"a":0,"k":0},"w":{"a":0,"k":0},"c":{"a":0,"k":[0,0,0,0]},"lc":3,"lj":1,"d":[]},{"o":{"a":0,"k":100},"r":1,"ty":"fl","c":{"a":0,"k":[0.6431372549019608,0.2980392156862745,0.2823529411764706,1]}},{"o":{"a":0,"k":100},"a":{"a":0,"k":[0,0]},"s":{"a":0,"k":[100,100]},"p":{"a":0,"k":[92,65]},"r":{"a":0,"k":0},"ty":"tr"}]},{"ty":"gr","it":[{"ty":"sh","ks":{"a":0,"k":{"c":true,"v":[[48,26],[49.9,44.1],[49.8,46.6],[50.5,46.8],[51.3,40.2],[37.6,7.3],[20,0.8],[4.1,5],[1,7.6],[0.2,12.5],[1.8,22.3],[13.4,38.5],[15.2,46.2],[18.3,53.9],[30.4,63.4],[45.1,60],[49.1,53.5],[50.3,47],[48.5,53.7],[43.2,60.6],[25.4,60],[16.2,44.1],[13,34.7],[6.6,26.8],[2.2,18.1],[1.9,13.2],[2.6,8.5],[6,6.2],[11,4.3],[19,2.6],[46.8,22.2]],"i":[[-0.3999999999999986,-1.3999999999999986],[0.20000000000000284,-6.100000000000001],[0,-0.8000000000000043],[-0.10000000000000142,0.30000000000000426],[-0.09999999999999432,2.0999999999999943],[9.899999999999999,7.8],[6.300000000000001,0],[4.9,-2.3],[0.7,-1.1999999999999993],[0.09999999999999998,-1.5999999999999996],[-1.4,-3.1000000000000014],[-2.5999999999999996,-6.299999999999997],[-0.5999999999999996,-2.6000000000000014],[-1.5,-2.3999999999999986],[-5.199999999999999,-1.2999999999999972],[-3.8999999999999986,3.5],[-0.8000000000000043,2.5],[0.4000000000000057,0.10000000000000142],[0.20000000000000284,-0.5],[2.5,-1.7000000000000028],[5.200000000000003,3.6000000000000014],[1,6.199999999999996],[1.9000000000000004,2.8999999999999986],[2.0999999999999996,2.599999999999998],[0.5999999999999996,3.299999999999997],[0,1.6000000000000014],[-0.8,1.4000000000000004],[-1.2999999999999998,0.5],[-1.6999999999999993,0.6000000000000005],[-2.6999999999999993,0],[-4.699999999999996,-11.399999999999999]],"o":[[1.7000000000000028,5.899999999999999],[0,0.7999999999999972],[0,0.29999999999999716],[0.7000000000000028,-2],[0.4000000000000057,-12.300000000000004],[-5,-3.9],[-5.5,0.09999999999999998],[-1.1999999999999997,0.5999999999999996],[-0.8,1.5],[-0.1,3.3000000000000007],[2.8,6.099999999999998],[0.9000000000000004,2.5],[0.6000000000000014,2.6999999999999957],[2.6999999999999993,4.5],[5,1.1999999999999957],[1.8999999999999986,-1.7999999999999972],[0.19999999999999574,-0.5],[0.10000000000000142,0],[-1.1000000000000014,2.799999999999997],[-5.300000000000004,3.499999999999993],[-5.299999999999997,-3.6000000000000014],[-0.5999999999999996,-3.3999999999999986],[-1.9000000000000004,-2.8000000000000043],[-2.0999999999999996,-2.6000000000000014],[-0.30000000000000027,-1.6000000000000014],[0,-1.5],[0.6999999999999997,-1.2000000000000002],[1.5999999999999996,-0.7000000000000002],[2.5,-0.8999999999999999],[12.600000000000001,-0.10000000000000009],[0.30000000000000426,1.1000000000000014]]}}},{"ty":"st","o":{"a":0,"k":0},"w":{"a":0,"k":0},"c":{"a":0,"k":[0,0,0,0]},"lc":3,"lj":1,"d":[]},{"o":{"a":0,"k":100},"r":1,"ty":"fl","c":{"a":0,"k":[0.6431372549019608,0.2980392156862745,0.2823529411764706,1]}},{"o":{"a":0,"k":100},"a":{"a":0,"k":[0,0]},"s":{"a":0,"k":[100,100]},"p":{"a":0,"k":[51,246]},"r":{"a":0,"k":0},"ty":"tr"}]},{"ty":"gr","it":[{"ty":"sh","ks":{"a":0,"k":{"c":true,"v":[[50.2,46.9],[44.2,15.7],[16.7,1.9],[5.7,5.3],[1.7,8.1],[1,11.1],[1.9,20.6],[14.4,39.5],[15.6,45.5],[27.3,61.8],[46.2,58.1]],"i":[[-0.5,3.8999999999999986],[5.899999999999999,9],[10.7,-1.5],[3.6000000000000005,-1.5],[0.8,-1.5],[0.10000000000000009,-1],[-1.0999999999999999,-3],[-2.3000000000000007,-7.299999999999997],[-0.40000000000000036,-2],[-6.300000000000001,-3],[-4.200000000000003,5.5]],"o":[[1.3999999999999986,-10.699999999999996],[-5.900000000000006,-9.1],[-3.799999999999999,0.5],[-1.5,0.6000000000000005],[-0.5,0.9000000000000004],[-0.19999999999999996,3.200000000000001],[2.5000000000000004,7.199999999999999],[0.5999999999999996,1.8999999999999986],[1.299999999999999,6.799999999999997],[6.300000000000001,3],[2.5,-3.3000000000000043]]}}},{"ty":"st","o":{"a":0,"k":0},"w":{"a":0,"k":0},"c":{"a":0,"k":[0,0,0,0]},"lc":3,"lj":1,"d":[]},{"o":{"a":0,"k":100},"r":1,"ty":"fl","c":{"a":0,"k":[0.9137254901960784,0.6901960784313725,0.5725490196078431,1]}},{"o":{"a":0,"k":100},"a":{"a":0,"k":[0,0]},"s":{"a":0,"k":[100,100]},"p":{"a":0,"k":[51,246]},"r":{"a":0,"k":0},"ty":"tr"}]},{"ty":"gr","it":[{"ty":"sh","ks":{"a":0,"k":{"c":true,"v":[[129.1,222.8],[104.9,281.6],[93.8,293.1],[93.7,296.8],[97.8,299.6],[102.9,298.5],[117.9,285.8],[129.8,269.9],[130.4,277.9],[135.5,283.8],[144.9,281.4],[157.1,261.3],[151.3,238.5]],"i":[[8.099999999999994,4.199999999999989],[17.799999999999997,-13.400000000000034],[1.7000000000000028,-5.100000000000023],[-0.5,-1.1999999999999886],[-1.7000000000000028,-0.20000000000004547],[-1.6000000000000085,0.6999999999999886],[-4.1000000000000085,5.199999999999989],[-4.300000000000011,5],[-0.8000000000000114,-2.5],[-2.5999999999999943,-0.9000000000000341],[-2.700000000000017,2],[-1.1999999999999886,8],[4.799999999999983,6.400000000000006]],"o":[[3.200000000000017,22],[-4.300000000000011,3.2999999999999545],[-0.3999999999999915,1.1999999999999886],[0.5999999999999943,1.599999999999966],[1.7000000000000028,0.19999999999998863],[6.099999999999994,-2.6999999999999886],[4.099999999999994,-5.199999999999989],[-0.10000000000002274,2.7000000000000455],[0.799999999999983,2.6000000000000227],[3.1999999999999886,1.099999999999966],[6.5,-4.699999999999989],[1.200000000000017,-8],[-5.700000000000017,-7.099999999999994]]}}},{"ty":"st","o":{"a":0,"k":0},"w":{"a":0,"k":0},"c":{"a":0,"k":[0,0,0,0]},"lc":3,"lj":1,"d":[]},{"o":{"a":0,"k":100},"r":1,"ty":"fl","c":{"a":0,"k":[0.8862745098039215,0.6352941176470588,0.5254901960784314,1]}},{"o":{"a":0,"k":100},"a":{"a":0,"k":[0,0]},"s":{"a":0,"k":[100,100]},"p":{"a":0,"k":[0,0]},"r":{"a":0,"k":0},"ty":"tr"}]},{"ty":"gr","it":[{"ty":"sh","ks":{"a":0,"k":{"c":true,"v":[[66.5,4.8],[79.9,13.1],[88.7,28.1],[88.6,31.1],[89.2,31.3],[89.6,29.8],[88.1,21.6],[75.8,7.7],[46.7,1.4],[37.6,5.2],[30.5,12.2],[18.3,29.4],[2.9,68.8],[1.1,89.6],[12.5,102.1],[34.7,93.1],[50,77.7],[50.3,80.1],[53.5,83.5],[62.7,83.2],[70.5,77.1],[77.2,69],[87,51],[91.9,32.5],[91.4,24.8],[91.6,32.1],[89.9,41.2],[82.1,59.4],[70.1,76],[53.7,82.2],[51.1,77.7],[51.3,76.4],[51.2,75.8],[51.1,75.1],[50.7,75.2],[49.8,75.9],[47.4,79],[40.2,86.5],[32.2,93.3],[24,98.8],[7,97.4],[2.4,79.6],[7.3,58.8],[15,39.1],[25.8,20.9],[32.1,12.9],[38.9,6.3]],"i":[[-8.399999999999999,-3.3],[-3.8000000000000114,-3.5999999999999996],[-0.4000000000000057,-5.800000000000001],[0,-1],[-0.10000000000000853,0.09999999999999787],[0,0.09999999999999787],[1.2000000000000028,2.5],[5.1000000000000085,3.499999999999999],[10,-2],[2.6999999999999957,-1.9000000000000004],[2.200000000000003,-2.5],[3.5,-6.099999999999998],[3.1999999999999997,-13.799999999999997],[-1.6,-6.8999999999999915],[-6.1,-1.2999999999999972],[-6.200000000000003,5.1000000000000085],[-4,6],[-0.29999999999999716,-0.5999999999999943],[-1.5,-0.7000000000000028],[-2.8000000000000043,1.3999999999999915],[-2.299999999999997,2.3000000000000114],[-2,2.9000000000000057],[-2.700000000000003,6.299999999999997],[-0.4000000000000057,6.399999999999999],[0.3999999999999915,-0.10000000000000142],[0,-0.5],[0.8999999999999915,-3],[3.1000000000000085,-5.799999999999997],[4.800000000000011,-4.900000000000006],[5.899999999999999,3.5999999999999943],[-0.10000000000000142,1.7999999999999972],[0,0.5],[0.3999999999999986,0.5],[-0.20000000000000284,0.20000000000000284],[0.09999999999999432,0],[0.4000000000000057,-0.5],[0.8000000000000043,-1],[2.5,-2.299999999999997],[2.6999999999999957,-2.200000000000003],[2.8999999999999986,-1.5],[4.6,4.5],[-0.7,6.200000000000003],[-2.0999999999999996,6.799999999999997],[-3.0999999999999996,6.399999999999999],[-4.199999999999999,5.700000000000003],[-2.200000000000003,2.5999999999999996],[-2.6000000000000014,1.8999999999999995]],"o":[[5,1.7999999999999998],[4.099999999999994,3.9000000000000004],[0.09999999999999432,1],[0,0.09999999999999787],[0.09999999999999432,0],[0.4000000000000057,-2.8000000000000007],[-2.5999999999999943,-5.700000000000001],[-8.299999999999997,-5.7],[-3.3000000000000043,0.6000000000000001],[-2.700000000000003,2],[-4.600000000000001,5.300000000000001],[-7.100000000000001,12.300000000000004],[-1.5,6.700000000000003],[1.2999999999999998,5.900000000000006],[8.5,1.7000000000000028],[5.5,-4.599999999999994],[-0.3999999999999986,0.7000000000000028],[0.6000000000000014,1.5],[2.8999999999999986,1.5],[3,-1.4000000000000057],[2.5,-2.5],[3.8999999999999915,-5.600000000000001],[2.5,-5.899999999999999],[0,-0.6000000000000014],[0.09999999999999432,0],[-0.19999999999998863,3.1000000000000014],[-1.8000000000000114,6.299999999999997],[-3.299999999999997,6.000000000000007],[-3.8999999999999915,3.9000000000000057],[-1.5,-0.9000000000000057],[0,-0.4000000000000057],[0,-0.4000000000000057],[-0.20000000000000284,-0.20000000000000284],[-0.10000000000000142,0],[-0.5,0.09999999999999432],[-0.7999999999999972,1.0999999999999943],[-2.1999999999999957,2.700000000000003],[-2.6000000000000014,2.4000000000000057],[-2.6000000000000014,2.1000000000000085],[-5.399999999999999,2.6000000000000085],[-4.7,-4.6000000000000085],[0.8999999999999999,-7],[2.1000000000000005,-6.699999999999996],[3,-6.399999999999999],[2,-2.799999999999997],[2,-2.4000000000000004],[7.600000000000001,-5.3999999999999995]]}}},{"ty":"st","o":{"a":0,"k":0},"w":{"a":0,"k":0},"c":{"a":0,"k":[0,0,0,0]},"lc":3,"lj":1,"d":[]},{"o":{"a":0,"k":100},"r":1,"ty":"fl","c":{"a":0,"k":[0.6431372549019608,0.2980392156862745,0.2823529411764706,1]}},{"o":{"a":0,"k":100},"a":{"a":0,"k":[0,0]},"s":{"a":0,"k":[100,100]},"p":{"a":0,"k":[78,203]},"r":{"a":0,"k":0},"ty":"tr"}]},{"ty":"gr","it":[{"ty":"sh","ks":{"a":0,"k":{"c":false,"v":[[88.9,31.2],[85.6,18.6],[50.2,1.7],[40,4.6],[32.6,11],[2.6,73.7],[1.6,88.3],[9.5,100.1],[22.5,100.1],[33.7,92.8],[51.1,75],[52.8,82.2],[60.6,83.3],[67.5,79.1],[85.4,53.6],[91.4,24.7]],"i":[[0,0],[2.5,3.6999999999999993],[13.599999999999994,-1.2],[3.1000000000000014,-1.6999999999999997],[2.1999999999999957,-2.4000000000000004],[4.800000000000001,-22.900000000000006],[-0.8,-4.799999999999997],[-4.4,-2.1999999999999886],[-4.100000000000001,1.7000000000000028],[-3.5000000000000036,2.9000000000000057],[-4.700000000000003,6.900000000000006],[-2.0999999999999943,-1.6000000000000085],[-2.6000000000000014,0.7000000000000028],[-2,1.8000000000000114],[-4.400000000000006,9.5],[1.5999999999999943,9.900000000000002]],"o":[[1.0999999999999943,-4.300000000000001],[-7.699999999999989,-11.400000000000002],[-3.6000000000000014,0.30000000000000004],[-2.799999999999997,1.6000000000000005],[-15.700000000000003,17.4],[-1,4.799999999999997],[0.7999999999999998,4.900000000000006],[4,2],[4.199999999999999,-1.5999999999999943],[6.399999999999999,-5.299999999999997],[-1.3999999999999986,2.299999999999997],[2.200000000000003,1.5999999999999943],[2.6000000000000014,-0.7999999999999972],[7.900000000000006,-6.8999999999999915],[4.199999999999989,-9],[0,0]]}}},{"ty":"st","o":{"a":0,"k":0},"w":{"a":0,"k":0},"c":{"a":0,"k":[0,0,0,0]},"lc":3,"lj":1,"d":[]},{"o":{"a":0,"k":100},"r":1,"ty":"fl","c":{"a":0,"k":[0.9137254901960784,0.6901960784313725,0.5725490196078431,1]}},{"o":{"a":0,"k":100},"a":{"a":0,"k":[0,0]},"s":{"a":0,"k":[100,100]},"p":{"a":0,"k":[78,203]},"r":{"a":0,"k":0},"ty":"tr"}]},{"ty":"gr","it":[{"ty":"sh","ks":{"a":0,"k":{"c":true,"v":[[51.2,15.9],[48.4,7.5],[42.2,0.9],[38.4,0.4],[38.1,1],[39.3,1.3],[45.9,6.4],[47.7,10.3],[48.9,15.1],[50.2,17.4],[51.9,22.1],[47.5,41.6],[35.4,56.9],[17.2,63.9],[7.7,60.2],[2.3,53.2],[4.6,32.9],[19.2,12.1],[29.1,4.3],[34.5,1.5],[38.2,0.7],[35,1],[30.7,2.7],[23.2,7.7],[10,20.7],[1.7,38],[0.5,48],[2.4,57.6],[9.9,62.8],[19.6,65.7],[37.1,57.5],[49.1,42.1],[53.8,22.9]],"i":[[1.3999999999999986,2.0999999999999996],[1.3000000000000043,2.6999999999999993],[2.799999999999997,0.9999999999999999],[1.2000000000000028,-0.2],[0,-0.4],[-0.19999999999999574,0],[-1.6000000000000014,-2.6000000000000005],[-0.4000000000000057,-1.4000000000000004],[-0.6000000000000014,-1.5],[-0.5,-0.7999999999999972],[-0.3999999999999986,-1.6000000000000014],[3.1000000000000014,-5.800000000000004],[4.899999999999999,-4.299999999999997],[6.900000000000002,1.6000000000000014],[2.999999999999999,1.5],[0.6000000000000001,3.3999999999999986],[-2.3999999999999995,6.399999999999999],[-6.299999999999999,5.799999999999999],[-3.5,2.3],[-1.8999999999999986,0.6000000000000001],[0,-0.09999999999999998],[0.20000000000000284,-0.09999999999999998],[1.4000000000000021,-0.7000000000000002],[2.400000000000002,-1.7999999999999998],[3.6999999999999993,-4.899999999999999],[1.5000000000000002,-6.199999999999999],[0,-3.299999999999997],[-1.7,-2.700000000000003],[-2.8000000000000007,-1.1999999999999957],[-3.400000000000002,-0.20000000000000284],[-4.700000000000003,4.299999999999997],[-3.1000000000000014,5.799999999999997],[0.8000000000000043,6.600000000000001]],"o":[[-1.5,-2.5999999999999996],[-1.2999999999999972,-2.5999999999999996],[-1.2000000000000028,-0.5],[-0.3999999999999986,0.09999999999999998],[0,0.30000000000000004],[3.1000000000000014,0.5],[0.8000000000000043,1.1999999999999993],[0.5,1.5999999999999996],[0.30000000000000426,0.9000000000000004],[0.7999999999999972,1.5],[1.3000000000000043,6.699999999999999],[-3.1000000000000014,5.699999999999996],[-5,4.5],[-3.299999999999999,-0.6999999999999957],[-3,-1.5],[-1.0999999999999999,-6.800000000000004],[3,-8.099999999999998],[3.1000000000000014,-2.9000000000000004],[1.6999999999999993,-1.0999999999999996],[0.20000000000000284,-0.10000000000000009],[0,-0.29999999999999993],[-1.5,0.3999999999999999],[-2.599999999999998,1.3999999999999995],[-4.899999999999999,3.7],[-3.9000000000000004,5.199999999999999],[-0.7999999999999999,3.299999999999997],[0,3.1000000000000014],[1.6999999999999997,2.6999999999999957],[3.0999999999999996,1.4000000000000057],[6.699999999999999,0.3999999999999915],[4.799999999999997,-4.399999999999999],[3.1000000000000014,-5.800000000000004],[-0.3999999999999986,-2.299999999999997]]}}},{"ty":"st","o":{"a":0,"k":0},"w":{"a":0,"k":0},"c":{"a":0,"k":[0,0,0,0]},"lc":3,"lj":1,"d":[]},{"o":{"a":0,"k":100},"r":1,"ty":"fl","c":{"a":0,"k":[0.6431372549019608,0.2980392156862745,0.2823529411764706,1]}},{"o":{"a":0,"k":100},"a":{"a":0,"k":[0,0]},"s":{"a":0,"k":[100,100]},"p":{"a":0,"k":[51,202]},"r":{"a":0,"k":0},"ty":"tr"}]},{"ty":"gr","it":[{"ty":"sh","ks":{"a":0,"k":{"c":true,"v":[[38.1,0.7],[46.9,6.4],[50.2,15.9],[31.2,61.2],[21.4,65.1],[9.3,61.9],[3.1,57.6],[1.4,52.4],[7.8,24.9],[27.9,4.7]],"i":[[-3.700000000000003,0],[-2.299999999999997,-3.8000000000000003],[-1.3000000000000043,-2],[13.3,-8.900000000000006],[3.5,-0.19999999999998863],[3.8999999999999986,1.7000000000000028],[1.4999999999999996,2.1000000000000014],[0.30000000000000004,1.8000000000000043],[-5,8.200000000000003],[-8,5.3]],"o":[[4.399999999999999,0],[2.3000000000000043,3.799999999999999],[8.899999999999999,13.4],[-3,2],[-4.199999999999999,0.30000000000001137],[-2.3000000000000007,-1],[-1,-1.5],[-1.2,-9.5],[5.000000000000001,-8.2],[3.1000000000000014,-2]]}}},{"ty":"st","o":{"a":0,"k":0},"w":{"a":0,"k":0},"c":{"a":0,"k":[0,0,0,0]},"lc":3,"lj":1,"d":[]},{"o":{"a":0,"k":100},"r":1,"ty":"fl","c":{"a":0,"k":[0.9137254901960784,0.6901960784313725,0.5725490196078431,1]}},{"o":{"a":0,"k":100},"a":{"a":0,"k":[0,0]},"s":{"a":0,"k":[100,100]},"p":{"a":0,"k":[51,202]},"r":{"a":0,"k":0},"ty":"tr"}]},{"ty":"gr","it":[{"ty":"sh","ks":{"a":0,"k":{"c":true,"v":[[5.1,217.8],[13.4,240.7],[35.7,251.7],[60.9,252.5],[62.1,235.3],[31.2,234.9]],"i":[[7.300000000000001,7.5],[-5.9,-6],[-8.300000000000004,-1.5999999999999943],[-8.399999999999999,0.5999999999999943],[-0.3999999999999986,5.699999999999989],[9.900000000000002,3.4000000000000057]],"o":[[-1.1999999999999997,8.299999999999983],[5.9,6],[8.299999999999997,1.6000000000000227],[0.3999999999999986,-5.699999999999989],[-9.899999999999999,3.3999999999999773],[-9.899999999999999,-3.4000000000000057]]}}},{"ty":"st","o":{"a":0,"k":0},"w":{"a":0,"k":0},"c":{"a":0,"k":[0,0,0,0]},"lc":3,"lj":1,"d":[]},{"o":{"a":0,"k":100},"r":1,"ty":"fl","c":{"a":0,"k":[0.8862745098039215,0.6352941176470588,0.5254901960784314,1]}},{"o":{"a":0,"k":100},"a":{"a":0,"k":[0,0]},"s":{"a":0,"k":[100,100]},"p":{"a":0,"k":[0,0]},"r":{"a":0,"k":0},"ty":"tr"}]},{"ty":"gr","it":[{"ty":"sh","ks":{"a":0,"k":{"c":true,"v":[[65.9,22.9],[52.6,8.8],[45.4,4.3],[43.5,3.9],[44.1,4.7],[69.2,30.6],[78.2,48.9],[80.7,58.9],[81.3,64],[81.3,69.4],[73.2,73.7],[62.7,73.6],[42,69.1],[22.8,62.7],[8.6,51],[6.3,14.3],[24.5,2.1],[35.4,1.9],[43.6,4.1],[37.1,1.8],[28.4,1],[10.7,8],[1.4,23.5],[3.1,43.2],[13.5,58.6],[31.6,67.6],[51.7,73.5],[72.6,75.7],[80.1,73.6],[83.3,67.7],[80.9,51.9]],"i":[[6.599999999999994,8.600000000000001],[5.100000000000001,4],[2.6000000000000014,1.2000000000000002],[0.20000000000000284,-0.6000000000000001],[-0.3999999999999986,-0.2999999999999998],[-6.5,-10.100000000000001],[-2.200000000000003,-6.5],[-0.5,-3.3999999999999986],[-0.09999999999999432,-1.7000000000000028],[0.4000000000000057,-1.7000000000000028],[2.5,-0.4000000000000057],[3.5,0.4000000000000057],[6.799999999999997,2],[6.099999999999998,2.700000000000003],[3.5999999999999996,5.100000000000001],[-7.3,11],[-7.399999999999999,1.4],[-3.599999999999998,-0.5999999999999999],[0,-0.19999999999999973],[0.6999999999999957,0.09999999999999987],[2.900000000000002,-0.09999999999999998],[5,-4.3],[1.3000000000000003,-6],[-2.3,-6.300000000000004],[-4.699999999999999,-4.100000000000001],[-6.5,-2.0999999999999943],[-6.800000000000004,-1.5999999999999943],[-6.8999999999999915,0.7000000000000028],[-2.299999999999997,1.2000000000000028],[0.10000000000000853,2.700000000000003],[1.5,5.100000000000001]],"o":[[-3.9000000000000057,-5.099999999999998],[-2.200000000000003,-1.700000000000001],[-0.3999999999999986,-0.20000000000000018],[-0.20000000000000284,0.5000000000000004],[10.5,6.1000000000000005],[3.700000000000003,5.699999999999996],[1.0999999999999943,3.3000000000000043],[0.29999999999999716,1.7000000000000028],[0.10000000000000853,1.7000000000000028],[-0.7000000000000028,3],[-3.5,0.5],[-7.100000000000001,-0.7999999999999972],[-6.399999999999999,-1.8999999999999915],[-5.800000000000001,-2.5],[-7.3,-10.5],[4.2,-6.300000000000001],[3.6000000000000014,-0.7000000000000002],[0.8000000000000043,0.10000000000000009],[0.19999999999999574,-0.39999999999999947],[-2.8999999999999986,-0.7],[-6.5,0.30000000000000004],[-4.699999999999999,4],[-1.3999999999999977,6.5],[2.1,5.899999999999999],[5.199999999999999,4.600000000000001],[6.600000000000001,2.200000000000003],[6.699999999999996,1.5999999999999943],[2.6000000000000085,-0.29999999999999716],[2.4000000000000057,-1.1999999999999886],[-0.09999999999999432,-5.400000000000006],[-3,-10.799999999999997]]}}},{"ty":"st","o":{"a":0,"k":0},"w":{"a":0,"k":0},"c":{"a":0,"k":[0,0,0,0]},"lc":3,"lj":1,"d":[]},{"o":{"a":0,"k":100},"r":1,"ty":"fl","c":{"a":0,"k":[0.6431372549019608,0.2980392156862745,0.2823529411764706,1]}},{"o":{"a":0,"k":100},"a":{"a":0,"k":[0,0]},"s":{"a":0,"k":[100,100]},"p":{"a":0,"k":[0,0]},"r":{"a":0,"k":0},"ty":"tr"}]},{"ty":"gr","it":[{"ty":"sh","ks":{"a":0,"k":{"c":true,"v":[[43.6,3.8],[61.9,19.1],[82.4,67.3],[81.8,70.6],[78.9,72.8],[63.2,74.4],[31.5,66.5],[18.5,61.2],[2.3,39],[3.3,18.3],[20.2,2.6]],"i":[[-7.300000000000004,-3.1999999999999997],[-5.100000000000001,-6.200000000000001],[-0.20000000000000284,-17.799999999999997],[0.6000000000000085,-1],[1.1999999999999886,-0.5],[5.299999999999997,0.5],[10.399999999999999,3.4000000000000057],[4.100000000000001,2.3999999999999986],[2.4000000000000004,9.100000000000001],[-2.6999999999999997,6.5],[-7.5,2.6]],"o":[[7.299999999999997,3.3],[11.399999999999999,13.699999999999996],[0,1.1000000000000085],[-0.5999999999999943,1.1000000000000085],[-4.900000000000006,2.1000000000000085],[-10.800000000000004,-1.2000000000000028],[-4.5,-1.4000000000000057],[-8.1,-4.800000000000004],[-1.7999999999999998,-6.799999999999997],[3,-7.300000000000001],[7.699999999999999,-2.6000000000000023]]}}},{"ty":"st","o":{"a":0,"k":0},"w":{"a":0,"k":0},"c":{"a":0,"k":[0,0,0,0]},"lc":3,"lj":1,"d":[]},{"o":{"a":0,"k":100},"r":1,"ty":"fl","c":{"a":0,"k":[0.9137254901960784,0.6901960784313725,0.5725490196078431,1]}},{"o":{"a":0,"k":100},"a":{"a":0,"k":[0,0]},"s":{"a":0,"k":[100,100]},"p":{"a":0,"k":[0,0]},"r":{"a":0,"k":0},"ty":"tr"}]},{"ty":"gr","it":[{"ty":"sh","ks":{"a":0,"k":{"c":true,"v":[[25.4,34.9],[29.4,30.1],[28.1,27],[27.4,25.9],[29.7,26.3],[30.2,25.7],[28,24.8],[25.2,23.9],[27,28.2],[27.5,30.9],[25.2,33.1],[22.1,32.6],[21,32.3],[20.2,33],[20,34.5],[14.6,36.3],[9.7,32.6],[7,27.7],[6,22.5],[3.9,22.8],[2.3,20.4],[2.3,11.9],[14.8,1.8],[30.7,7.7],[33.7,10.5],[35.8,13.8],[34.3,16.2],[32.2,16.2],[31.2,15.8],[30.5,16.3],[34.4,22.7],[32.5,25.4],[30,25.9],[32.5,25.8],[34.9,22.9],[30.9,15.6],[30.5,16.3],[32.3,17.1],[36.4,15.9],[33.3,8.4],[16,0.4],[1.2,10.8],[0.8,20.4],[2.3,23.4],[4.6,24.6],[5,26.8],[6.8,30.4],[10.2,35.9],[17.8,37.6],[21.8,34.4],[25.4,34.9]],"i":[[-0.5999999999999979,0.20000000000000284],[0.10000000000000142,2.1000000000000014],[0.5999999999999979,0.8999999999999986],[0.10000000000000142,0.40000000000000213],[-0.8000000000000007,-0.10000000000000142],[0.40000000000000213,0.3000000000000007],[0.6999999999999993,0.3000000000000007],[0.9000000000000021,0.3000000000000007],[-0.8000000000000007,-1.3000000000000007],[0.5,-0.8999999999999986],[1,-0.5],[0.7999999999999972,0.8999999999999986],[0.6999999999999993,-0.19999999999999574],[0,-0.6000000000000014],[0.1999999999999993,-0.5],[1.5999999999999996,0.20000000000000284],[1,2],[0.9000000000000004,1.6999999999999993],[0,1.8999999999999986],[0.6999999999999997,0.3999999999999986],[0.30000000000000027,0.9000000000000021],[-0.8999999999999999,2.799999999999999],[-5.9,0.4999999999999998],[-4.399999999999999,-3.8000000000000003],[-1,-1],[-0.19999999999999574,-1.3000000000000007],[1.1000000000000014,-0.29999999999999893],[0.6999999999999957,0.1999999999999993],[0.3000000000000007,0.1999999999999993],[0.1999999999999993,-0.40000000000000036],[0.30000000000000426,-2.3000000000000007],[1,-0.5999999999999979],[0,0.10000000000000142],[-0.20000000000000284,0.09999999999999787],[-0.19999999999999574,1.3000000000000007],[2.200000000000003,1.299999999999999],[-0.10000000000000142,-0.10000000000000142],[-0.5999999999999979,-0.20000000000000284],[-0.7999999999999972,1.4000000000000004],[1.8000000000000043,1.799999999999999],[6.600000000000001,-0.10000000000000003],[2.2,-6.300000000000001],[-0.9,-3.099999999999998],[-0.7999999999999998,-0.8999999999999986],[-0.7999999999999998,0.1999999999999993],[-0.20000000000000018,-0.6999999999999993],[-0.5999999999999996,-1.0999999999999979],[-1.5999999999999996,-1.5],[-2.700000000000001,0.6000000000000014],[-0.40000000000000213,1.8000000000000043],[-1.0999999999999979,0.30000000000000426]],"o":[[1.9000000000000021,-0.5],[0,-1.2000000000000028],[-0.20000000000000284,-0.3000000000000007],[0.8000000000000007,0],[0.1999999999999993,0],[-0.5999999999999979,-0.3999999999999986],[-0.8999999999999986,-0.3000000000000007],[0.3000000000000007,1.6000000000000014],[0.5,0.8000000000000007],[-0.5,0.9000000000000021],[-1,0.5],[-0.40000000000000213,-0.5],[-0.6000000000000014,0.20000000000000284],[0.10000000000000142,0.5],[-0.8999999999999986,1.7000000000000028],[-2.1999999999999993,-0.29999999999999716],[-0.7999999999999989,-1.7000000000000028],[-0.9000000000000004,-1.6999999999999993],[-0.7000000000000002,0.3000000000000007],[-0.7999999999999998,-0.5],[-0.8999999999999999,-2.6999999999999993],[1.7000000000000002,-5.7],[5.899999999999999,-0.5],[1,0.8999999999999995],[0.8999999999999986,0.9000000000000004],[0.20000000000000284,1.1999999999999993],[-0.6999999999999957,0.1999999999999993],[-0.30000000000000426,-0.09999999999999787],[-0.5,-0.3000000000000007],[2,1.0999999999999979],[-0.19999999999999574,1.1000000000000014],[-0.20000000000000284,0.10000000000000142],[-0.10000000000000142,0.40000000000000213],[1.2000000000000028,-0.5],[0.5,-2.599999999999998],[-0.09999999999999787,0.09999999999999964],[0.5,0.3999999999999986],[1.4000000000000057,0.29999999999999716],[1.7000000000000028,-2.8000000000000007],[-4.599999999999998,-4.6000000000000005],[-6.699999999999999,0.09999999999999998],[-1.0999999999999999,3.0999999999999996],[0.30000000000000004,1.1000000000000014],[0.5,0.5],[0.10000000000000053,0.6999999999999993],[0.40000000000000036,1.3000000000000007],[1.1000000000000005,1.8999999999999986],[2.1000000000000014,1.8999999999999986],[1.6999999999999993,-0.3999999999999986],[1.1999999999999993,0.7000000000000028],[0.10000000000000142,-0.10000000000000142]]}}},{"ty":"st","o":{"a":0,"k":0},"w":{"a":0,"k":0},"c":{"a":0,"k":[0,0,0,0]},"lc":3,"lj":1,"d":[]},{"o":{"a":0,"k":100},"r":1,"ty":"fl","c":{"a":0,"k":[0.6431372549019608,0.2980392156862745,0.2823529411764706,1]}},{"o":{"a":0,"k":100},"a":{"a":0,"k":[0,0]},"s":{"a":0,"k":[100,100]},"p":{"a":0,"k":[70,147]},"r":{"a":0,"k":0},"ty":"tr"}]},{"ty":"gr","it":[{"ty":"sh","ks":{"a":0,"k":{"c":true,"v":[[30.3,26],[26.3,24.8],[28.1,31.6],[24.7,34.1],[21.2,32.2],[15.7,37.1],[9.2,32.9],[5.5,23.7],[2,21.3],[9.2,2.8],[23.1,2.4],[34.7,10.6],[36.5,13.5],[35.5,16.5],[31,16.1],[34.8,21.2]],"i":[[2.8000000000000007,0.6000000000000014],[1,0.3000000000000007],[1.5999999999999979,-2.3000000000000007],[1.4000000000000021,-0.20000000000000284],[0.40000000000000213,1.3999999999999986],[3.400000000000002,-0.20000000000000284],[1.1000000000000014,2.5],[0,3.8000000000000007],[0.6000000000000001,1.5],[-6.499999999999999,3.2],[-4.400000000000002,-1.7],[-3.200000000000003,-3.5],[-0.29999999999999716,-1.0999999999999996],[1,-0.5999999999999996],[1.2999999999999972,0.8999999999999986],[-0.7999999999999972,-2.1999999999999993]],"o":[[-1.6000000000000014,-0.3999999999999986],[0.8000000000000007,2.8000000000000007],[-0.8000000000000007,1.1999999999999957],[-1.3999999999999986,0.29999999999999716],[0.8000000000000007,3.299999999999997],[-2.799999999999999,0.10000000000000142],[-1.6999999999999993,-3.799999999999997],[-1.4000000000000004,0.6999999999999993],[-2.6,-6.800000000000001],[4.300000000000001,-2.0999999999999996],[4.5,1.6],[0.7999999999999972,0.8000000000000007],[0.29999999999999716,1.0999999999999996],[-1.5,0.6000000000000014],[1.7000000000000028,0.8999999999999986],[0.9000000000000057,2.6999999999999993]]}}},{"ty":"st","o":{"a":0,"k":0},"w":{"a":0,"k":0},"c":{"a":0,"k":[0,0,0,0]},"lc":3,"lj":1,"d":[]},{"o":{"a":0,"k":100},"r":1,"ty":"fl","c":{"a":0,"k":[0.9137254901960784,0.6901960784313725,0.5725490196078431,1]}},{"o":{"a":0,"k":100},"a":{"a":0,"k":[0,0]},"s":{"a":0,"k":[100,100]},"p":{"a":0,"k":[70,147]},"r":{"a":0,"k":0},"ty":"tr"}]},{"ty":"gr","it":[{"ty":"sh","ks":{"a":0,"k":{"c":false,"v":[[75.2,163.1],[60.9,179.5],[58,185.5],[60.7,191.2],[67.4,190.7],[79,182.6],[84.2,173.4],[81.2,163.6],[71.5,163.9]],"i":[[0,0],[4.600000000000001,-5.699999999999989],[0.20000000000000284,-2.3000000000000114],[-2,-1],[-2.1000000000000085,0.9000000000000057],[-3.299999999999997,3.4000000000000057],[-0.7000000000000028,3.5],[2.700000000000003,2.3000000000000114],[2.4000000000000057,-2.700000000000017]],"o":[[-2.5,6.900000000000006],[-1.3999999999999986,1.6999999999999886],[-0.29999999999999716,2.1999999999999886],[2.0999999999999943,1.1000000000000227],[4.3999999999999915,-1.8999999999999773],[2.4000000000000057,-2.5999999999999943],[0.7000000000000028,-3.5],[-2.700000000000003,-2.299999999999983],[0,0]]}}},{"ty":"st","o":{"a":0,"k":0},"w":{"a":0,"k":0},"c":{"a":0,"k":[0,0,0,0]},"lc":3,"lj":1,"d":[]},{"o":{"a":0,"k":100},"r":1,"ty":"fl","c":{"a":0,"k":[0.8862745098039215,0.6352941176470588,0.5254901960784314,1]}},{"o":{"a":0,"k":100},"a":{"a":0,"k":[0,0]},"s":{"a":0,"k":[100,100]},"p":{"a":0,"k":[0,0]},"r":{"a":0,"k":0},"ty":"tr"}]},{"ty":"gr","it":[{"ty":"sh","ks":{"a":0,"k":{"c":true,"v":[[28.2,3.2],[37.4,2.6],[40.8,4.1],[41.8,5.2],[42.4,4.8],[36.1,0.8],[26.8,1.8],[10.1,11.8],[0.7,28.8],[8.8,43.7],[25.4,36.8],[38.3,21.5],[41.8,13.1],[42.6,8.7],[42.1,5.2],[42.3,7.7],[41.4,12.2],[37.7,20.7],[24.5,35.9],[8.6,42.1],[2.6,26.7],[12.9,11.4]],"i":[[-5.699999999999999,1.3999999999999995],[-3,-0.6000000000000001],[-1,-0.7999999999999998],[-0.3999999999999986,-0.2999999999999998],[0,0.2999999999999998],[2.1999999999999957,0.19999999999999996],[2.8999999999999986,-0.9],[4.700000000000001,-4.6000000000000005],[0.7,-6.600000000000001],[-6.1000000000000005,-2.200000000000003],[-4.599999999999998,4.300000000000004],[-3.299999999999997,5.800000000000001],[-0.6999999999999957,2.9000000000000004],[-0.10000000000000142,1.5],[0.3999999999999986,-0.20000000000000018],[0,-0.10000000000000053],[0.3999999999999986,-1.5],[1.5999999999999943,-2.6999999999999993],[5,-4.5],[6.4,2.8999999999999986],[-1.4000000000000001,5.800000000000001],[-4.6,4.1]],"o":[[2.900000000000002,-0.8000000000000003],[1.2000000000000028,0.19999999999999973],[0.4000000000000057,0.3000000000000007],[0.10000000000000142,0.09999999999999964],[-0.5,-2.6999999999999997],[-3.1000000000000014,-0.4],[-6.300000000000001,1.7],[-4.6,4.5],[-0.6999999999998869,6.099999999999998],[6.799999999999999,2.5],[4.900000000000002,-4.5],[1.5,-2.6000000000000014],[0.4000000000000057,-1.4000000000000004],[0,-0.1999999999999993],[0.10000000000000142,0],[-0.09999999999999432,1.4999999999999991],[-0.8999999999999986,3],[-3.5,5.800000000000001],[-4.399999999999999,3.8999999999999986],[-5.8,-2.700000000000003],[1.4999999999999996,-6],[4.4,-3.8000000000000007]]}}},{"ty":"st","o":{"a":0,"k":0},"w":{"a":0,"k":0},"c":{"a":0,"k":[0,0,0,0]},"lc":3,"lj":1,"d":[]},{"o":{"a":0,"k":100},"r":1,"ty":"fl","c":{"a":0,"k":[0.6431372549019608,0.2980392156862745,0.2823529411764706,1]}},{"o":{"a":0,"k":100},"a":{"a":0,"k":[0,0]},"s":{"a":0,"k":[100,100]},"p":{"a":0,"k":[49,152]},"r":{"a":0,"k":0},"ty":"tr"}]},{"ty":"gr","it":[{"ty":"sh","ks":{"a":0,"k":{"c":true,"v":[[42.1,5.2],[34.1,1.6],[7.8,15.6],[1.8,26.7],[3.6,38.9],[14.6,43.6],[21.8,39.2],[42.3,9.4]],"i":[[0.5,1.2999999999999998],[3.1000000000000014,-0.10000000000000009],[6.500000000000001,-7.8999999999999995],[0.9999999999999998,-4.099999999999998],[-2.3,-3.5],[-4.1,1],[-2.1999999999999993,1.8999999999999986],[-1.7999999999999972,12.200000000000001]],"o":[[-1.2000000000000028,-2.9000000000000004],[-10.200000000000003,0.2999999999999998],[-2.7,3.299999999999999],[-1,4.100000000000001],[2.4,3.5],[2.700000000000001,-0.6000000000000014],[9.3,-8.000000000000004],[0.20000000000000284,-1.4000000000000004]]}}},{"ty":"st","o":{"a":0,"k":0},"w":{"a":0,"k":0},"c":{"a":0,"k":[0,0,0,0]},"lc":3,"lj":1,"d":[]},{"o":{"a":0,"k":100},"r":1,"ty":"fl","c":{"a":0,"k":[0.9137254901960784,0.6901960784313725,0.5725490196078431,1]}},{"o":{"a":0,"k":100},"a":{"a":0,"k":[0,0]},"s":{"a":0,"k":[100,100]},"p":{"a":0,"k":[49,152]},"r":{"a":0,"k":0},"ty":"tr"}]},{"ty":"gr","it":[{"ty":"sh","ks":{"a":0,"k":{"c":true,"v":[[3.4,22.8],[5.5,19],[11.6,16.8],[11.3,15.3],[5,14.5],[10.4,10.1],[13.6,9.9],[14.4,10],[14.5,9.4],[8.4,9.4],[3.8,13.1],[4.3,16.4],[8,17.5],[16.4,15],[5.1,17.4],[2.4,24.1],[9.2,23.9],[11.5,22.9],[11.2,22.1],[10.9,21.3],[8.4,22.3],[1.7,28],[3.7,35.9],[7.5,36.5],[8.2,36.2],[9.1,35.2],[14,34.2],[20.4,37.9],[21,40.4],[22.7,45.8],[26.7,54.9],[37.9,70.8],[54.1,82.7],[72.1,79.4],[75.7,60.7],[67.5,42.8],[51.7,30.3],[44.5,27.7],[41.1,27],[38.8,26.8],[38.4,26.5],[38.6,24.2],[38.5,20.6],[36.3,13],[26.3,2.5],[12.7,2.5],[9.5,7.9],[12.2,9],[14.8,9.8],[11.6,8.7],[10.2,5.8],[17.2,1.4],[32.7,8.8],[37.5,26.3],[37.3,27.7],[40.3,28.1],[46.2,29.4],[73.2,56],[73.1,75.5],[66.8,81.7],[56.8,82],[40.1,70.7],[28.6,54.8],[22,37.6],[21.7,36.5],[20.9,36.3],[17.7,35.1],[9.8,32.1],[7.5,34],[7,34.9],[2.7,31.9],[11.5,22.9],[10.9,21.3],[6.8,22.9],[3.4,22.8]],"i":[[0.30000000000000027,0.3999999999999986],[-1,0.6999999999999993],[-2.1999999999999993,0.09999999999999787],[0.09999999999999964,0.5],[0.20000000000000018,2.6000000000000014],[-1.8000000000000007,0.40000000000000036],[-1.0999999999999996,-0.09999999999999964],[0,0],[0.09999999999999964,0.09999999999999964],[1.5,-0.5],[0.7999999999999998,-1.9000000000000004],[-0.7999999999999998,-0.8999999999999986],[-1.2999999999999998,0.10000000000000142],[-2.6999999999999993,1],[3.4000000000000004,-2.299999999999999],[-2.3,-2.6000000000000014],[-2.0999999999999996,0.8000000000000007],[-0.8000000000000007,0.40000000000000213],[0,0.1999999999999993],[0.09999999999999964,0.09999999999999787],[0.9000000000000004,-0.40000000000000213],[1.3,-2.8000000000000007],[-2.9000000000000004,-1.6000000000000014],[-1.2999999999999998,0.29999999999999716],[-0.1999999999999993,0.09999999999999432],[-0.09999999999999964,0.5999999999999943],[-1.4000000000000004,-1],[-2.599999999999998,-0.10000000000000142],[0,-0.10000000000000142],[-0.5999999999999979,-1.7999999999999972],[-1.5,-2.8999999999999986],[-4.399999999999999,-4.799999999999997],[-6.399999999999999,-2.4000000000000057],[-4.599999999999994,5.3999999999999915],[1,6.299999999999997],[4.099999999999994,5.100000000000001],[6.199999999999996,3.099999999999998],[2.3999999999999986,0.5],[1.1000000000000014,0.1999999999999993],[0.8000000000000043,0],[0,0.3999999999999986],[0,0.6000000000000014],[0.10000000000000142,1.1999999999999993],[1.1000000000000014,2.3000000000000007],[4.399999999999999,2.2],[4.100000000000001,-2.8],[-1,-2],[-1.0999999999999996,-0.09999999999999964],[0.09999999999999964,-0.20000000000000107],[0.20000000000000107,0],[-0.8999999999999986,1.5],[-2.799999999999999,0.40000000000000013],[-3.6000000000000014,-4.500000000000001],[1,-6.199999999999999],[0.10000000000000142,-0.5],[-0.29999999999999716,0],[-1.9000000000000057,-0.5999999999999979],[-3.9000000000000057,-12.399999999999999],[2.8000000000000114,-6.099999999999994],[2.799999999999997,-1.2000000000000028],[3.3000000000000043,0.9000000000000057],[4.600000000000001,4.8999999999999915],[3.099999999999998,5.800000000000004],[1.5,6],[0.10000000000000142,0.3999999999999986],[0.3000000000000007,0],[1,0.6999999999999957],[3.3999999999999986,-1],[0.40000000000000036,-1],[0.5,-0.10000000000000142],[0.2999999999999998,1.8999999999999986],[-3.7,1.4000000000000021],[0.1999999999999993,0.5999999999999979],[1.3999999999999995,-0.5],[0.8000000000000003,1.0999999999999979]],"o":[[-1.1999999999999997,-1.5],[1.7999999999999998,-1.3000000000000007],[-0.09999999999999964,-0.5],[-1.4000000000000004,0.5999999999999996],[-0.2999999999999998,-2.5],[1.0999999999999996,-0.1999999999999993],[0,0],[0,0],[-1.5,-1.0999999999999996],[-1.9000000000000004,0.5999999999999996],[-0.5,1.0999999999999996],[0.9000000000000004,1.1000000000000014],[2.9000000000000004,0],[-3.9999999999999982,0.1999999999999993],[-2.1999999999999997,1.4000000000000021],[1.8000000000000003,2],[0.8000000000000007,-0.29999999999999716],[0,-0.09999999999999787],[-0.09999999999999964,-0.10000000000000142],[-0.8000000000000007,0.3000000000000007],[-2.8000000000000007,1.1999999999999993],[-1.2999999999999998,2.8000000000000007],[1.0999999999999996,0.7000000000000028],[0.20000000000000018,-0.10000000000000142],[0.6000000000000014,-0.30000000000000426],[-0.1999999999999993,-2.4000000000000057],[2,1.3999999999999986],[0.10000000000000142,0],[0.5,1.8000000000000043],[1.1000000000000014,3.1000000000000014],[3,5.800000000000004],[4.5,4.900000000000006],[6.199999999999996,2.299999999999997],[4.300000000000011,-5.1000000000000085],[-1.1000000000000085,-6.5],[-4.299999999999997,-5.399999999999999],[-2.200000000000003,-1.1000000000000014],[-1.1000000000000014,-0.1999999999999993],[-0.8000000000000043,-0.10000000000000142],[-0.5999999999999943,-0.10000000000000142],[-0.19999999999999574,-0.6000000000000014],[0.10000000000000142,-1.1999999999999993],[-0.29999999999999716,-2.6000000000000014],[-2.0999999999999943,-4.4],[-4.300000000000001,-2.2],[-1.3999999999999986,0.8999999999999999],[0.5999999999999996,1],[0.20000000000000107,0],[0.29999999999999893,-0.40000000000000036],[-1.6999999999999993,-0.1999999999999993],[1.5,-2.4],[6,-0.8999999999999999],[3.8999999999999986,4.799999999999999],[-0.10000000000000142,0.5],[0,0.10000000000000142],[2,0.1999999999999993],[12.399999999999999,3.8000000000000043],[2,6.200000000000003],[-1.2999999999999972,2.799999999999997],[-3.0999999999999943,1.3999999999999915],[-6.599999999999994,-1.9000000000000057],[-4.5,-4.700000000000003],[-2.900000000000002,-5.399999999999999],[-0.10000000000000142,-0.3999999999999986],[-0.09999999999999787,-0.29999999999999716],[-1.1999999999999993,0],[-2.3999999999999986,-1.8000000000000043],[-1,0.29999999999999716],[-0.20000000000000018,0.6000000000000014],[-2,0.5],[-0.9000000000000001,-5.099999999999998],[-0.1999999999999993,-0.5],[-1.3000000000000007,0.5999999999999979],[-1.2999999999999998,0.40000000000000213],[0,0]]}}},{"ty":"st","o":{"a":0,"k":0},"w":{"a":0,"k":0},"c":{"a":0,"k":[0,0,0,0]},"lc":3,"lj":1,"d":[]},{"o":{"a":0,"k":100},"r":1,"ty":"fl","c":{"a":0,"k":[0.6431372549019608,0.2980392156862745,0.2823529411764706,1]}},{"o":{"a":0,"k":100},"a":{"a":0,"k":[0,0]},"s":{"a":0,"k":[100,100]},"p":{"a":0,"k":[117,131]},"r":{"a":0,"k":0},"ty":"tr"}]},{"ty":"gr","it":[{"ty":"sh","ks":{"a":0,"k":{"c":true,"v":[[14.4,9.6],[4.4,13.3],[6.2,16.5],[11.6,15.9],[2.9,20.1],[5.4,24.1],[10.9,22],[4.1,25.6],[1.8,32.6],[8,35],[13.9,33.2],[20.7,36.9],[43.6,75.2],[69,80.8],[75.1,62.4],[37.5,26.9],[27.6,3.6],[16.8,0.8],[9.2,6],[10.5,8.5]],"i":[[-1.200000000000001,-0.9000000000000004],[1.3999999999999995,-3.200000000000001],[-1.5,-0.1999999999999993],[-1.6999999999999993,0.7000000000000011],[2.1999999999999997,-2.400000000000002],[-2.3000000000000003,0.6999999999999993],[-1.8000000000000007,0.8999999999999986],[1.9000000000000004,-1.7000000000000028],[-0.8,-2.5],[-2,1.6000000000000014],[-2.0999999999999996,-1.5000000000000036],[-2.6999999999999993,0.30000000000000426],[-11.300000000000004,-10],[-7.700000000000003,5.400000000000006],[0.8000000000000114,6.699999999999996],[18.700000000000003,1.2000000000000028],[7.5,4.9],[3.8000000000000007,-0.6000000000000001],[1.4000000000000004,-2.8],[-1.0999999999999996,-0.1999999999999993]],"o":[[-3.3000000000000007,-1],[-0.6000000000000005,1.3999999999999986],[1.7999999999999998,0.3000000000000007],[-3.299999999999999,0.20000000000000107],[-1.7,1.7999999999999972],[1.8999999999999995,-0.6000000000000014],[-2.4000000000000004,0.8999999999999986],[-1.8999999999999995,1.7999999999999972],[0.8,2.5],[-0.40000000000000036,-2.6000000000000014],[2.200000000000001,1.5],[3.400000000000002,14.700000000000003],[7,6.200000000000003],[5.599999999999994,-3.8999999999999915],[-2.299999999999997,-18.6],[1.6000000000000014,-8.799999999999997],[-3.200000000000003,-2.1],[-3.200000000000001,0.5],[-0.5,1],[1.4000000000000004,0.3000000000000007]]}}},{"ty":"st","o":{"a":0,"k":0},"w":{"a":0,"k":0},"c":{"a":0,"k":[0,0,0,0]},"lc":3,"lj":1,"d":[]},{"o":{"a":0,"k":100},"r":1,"ty":"fl","c":{"a":0,"k":[0.9137254901960784,0.6901960784313725,0.5725490196078431,1]}},{"o":{"a":0,"k":100},"a":{"a":0,"k":[0,0]},"s":{"a":0,"k":[100,100]},"p":{"a":0,"k":[117,131]},"r":{"a":0,"k":0},"ty":"tr"}]},{"ty":"gr","it":[{"ty":"sh","ks":{"a":0,"k":{"c":true,"v":[[83.3,12.8],[133.9,6],[104.7,20.9],[146.7,12.2],[136.8,29.7],[156.8,17.3],[162.8,49.1],[166.9,18.3],[183.4,37],[180.8,25.4],[192.5,36.4],[201.8,51.3],[182.7,5],[162.2,7.1],[152.8,3.3],[127.1,0.4]],"i":[[12.200000000000003,-9.600000000000001],[-17.10000000000001,-1.0999999999999996],[8.099999999999994,-7.599999999999998],[-14.399999999999977,-1.6999999999999993],[0.5999999999999943,-6.899999999999999],[-7.5,2.3999999999999986],[-1.1000000000000227,-10.700000000000003],[1.0999999999999943,10.399999999999999],[-4.599999999999994,-7],[0.8999999999999773,3.8000000000000007],[-3.9000000000000057,-3.6999999999999957],[-0.20000000000001705,-6],[8.300000000000011,14.5],[6.800000000000011,1.200000000000001],[3.0999999999999943,1.2999999999999998],[8.700000000000017,-0.5]],"o":[[16.200000000000003,-5.6000000000000005],[-10.900000000000006,2],[13.5,-5.199999999999999],[-5.599999999999994,4],[5.5,-5.699999999999999],[2.8999999999999773,10.399999999999999],[3.799999999999983,-9.800000000000004],[6.400000000000006,5.399999999999999],[-0.9000000000000057,-3.8999999999999986],[3.8999999999999773,3.700000000000003],[4.400000000000006,4.100000000000001],[-4.300000000000011,-16.199999999999996],[-6.899999999999977,-0.7999999999999998],[-3.299999999999983,-0.5999999999999996],[-8,-3.4],[-15.299999999999997,0.6]]}}},{"ty":"st","o":{"a":0,"k":0},"w":{"a":0,"k":0},"c":{"a":0,"k":[0,0,0,0]},"lc":3,"lj":1,"d":[]},{"o":{"a":0,"k":100},"r":1,"ty":"fl","c":{"a":0,"k":[0.7333333333333333,0.5254901960784314,0.42745098039215684,1]}},{"o":{"a":0,"k":100},"a":{"a":0,"k":[0,0]},"s":{"a":0,"k":[100,100]},"p":{"a":0,"k":[0,0]},"r":{"a":0,"k":0},"ty":"tr"}]},{"ty":"gr","it":[{"ty":"sh","ks":{"a":0,"k":{"c":true,"v":[[34,252.5],[36.3,267.8],[67.9,299.5],[112.5,303.7],[141.2,283.6],[147,256.4],[144.3,246],[136.6,242.6],[54.8,239.7],[42.5,243.3]],"i":[[1.2999999999999972,-4.099999999999994],[-2.299999999999997,-4.800000000000011],[-13.800000000000004,-6.5],[-14.799999999999997,3.8000000000000114],[-5.899999999999977,10.399999999999977],[-0.09999999999999432,9.400000000000034],[2.5999999999999943,2.6999999999999886],[2.8000000000000114,0.5999999999999943],[27.10000000000001,-4.599999999999994],[3.799999999999997,-2]],"o":[[-1.6000000000000014,5],[6.400000000000006,13.800000000000011],[13.799999999999997,6.5],[11.599999999999994,-3],[4.600000000000023,-8.100000000000023],[0.09999999999999432,-3.6999999999999886],[-2,-2.0999999999999943],[-26.799999999999997,-5.799999999999983],[-4.199999999999996,0.700000000000017],[-3.8999999999999986,1.8999999999999773]]}}},{"ty":"st","o":{"a":0,"k":0},"w":{"a":0,"k":0},"c":{"a":0,"k":[0,0,0,0]},"lc":3,"lj":1,"d":[]},{"o":{"a":0,"k":100},"r":1,"ty":"fl","c":{"a":0,"k":[0.6745098039215687,0.7490196078431373,0.7568627450980392,1]}},{"o":{"a":0,"k":100},"a":{"a":0,"k":[0,0]},"s":{"a":0,"k":[100,100]},"p":{"a":0,"k":[0,0]},"r":{"a":0,"k":0},"ty":"tr"}]},{"ty":"gr","it":[{"ty":"sh","ks":{"a":0,"k":{"c":true,"v":[[129.1,67.6],[141.5,30.9],[141.4,23.1],[141.2,21.7],[140.6,21.7],[140.6,24.5],[138.2,42.1],[120.6,78.5],[107.8,93.9],[93.9,102.8],[57.8,104.8],[23,88.1],[3.1,57.6],[3.6,36.9],[6.7,27.1],[10.8,17.7],[17.8,12.4],[27.8,9.1],[48.4,4.3],[87.9,1.6],[120.3,5.8],[134.2,11.8],[139.2,16.4],[140.3,19.2],[140.7,21.6],[140.4,18.6],[138.3,14.7],[131.1,9.3],[112.4,3.3],[73.3,0.5],[32.2,6.4],[21.9,9.4],[12.7,13.2],[7.6,20.9],[3.9,30.3],[0.6,50.8],[5.5,69.1],[31.2,95.6],[101.4,100.5]],"i":[[-7,12.5],[-0.9000000000000057,13],[0.29999999999998295,2.599999999999998],[0.20000000000001705,0.40000000000000213],[0,0],[0,-0.6999999999999993],[1.6000000000000227,-5.700000000000003],[7.400000000000006,-11.200000000000003],[5,-4.5],[5.099999999999994,-2.200000000000003],[11.700000000000003,2.700000000000003],[10,8.100000000000009],[2.6999999999999997,12.199999999999996],[-1.6,6.899999999999999],[-1.2000000000000002,3.1999999999999993],[-1.700000000000001,3],[-3,1.0999999999999996],[-3.3000000000000007,1],[-7,1.2000000000000002],[-13.200000000000003,-0.40000000000000013],[-10.5,-2.6999999999999997],[-4.199999999999989,-2.9000000000000004],[-1.1999999999999886,-1.8999999999999986],[-0.20000000000001705,-1],[0,0],[0,0.29999999999999716],[1,1.1000000000000014],[2.5999999999999943,1.3999999999999986],[6.3999999999999915,1.2000000000000002],[13.100000000000009,-0.4999999999999458],[13.399999999999999,-3.5000000000000004],[3.400000000000002,-1.0999999999999996],[2.700000000000001,-2],[1.200000000000001,-2.799999999999997],[1.1,-3.1999999999999993],[-0.39999999999999997,-7],[-2.8,-5.699999999999996],[-10.7,-6.3999999999999915],[-21.400000000000006,13.400000000000006]],"o":[[6.300000000000011,-11.299999999999997],[0.19999999999998863,-2.599999999999998],[0,-0.40000000000000213],[0,-0.09999999999999787],[-0.29999999999998295,0.6999999999999993],[0.09999999999999432,5.899999999999999],[-3.5,13],[-3.6999999999999886,5.599999999999994],[-4.200000000000003,3.799999999999997],[-11.200000000000003,4.900000000000006],[-12.599999999999994,-2.799999999999997],[-9.6,-7.799999999999997],[-1.5,-6.899999999999999],[0.8000000000000003,-3.299999999999997],[1.2000000000000002,-3.200000000000003],[1.5999999999999996,-2.799999999999999],[3.3000000000000007,-1.200000000000001],[6.800000000000001,-2],[13,-2.3],[10.799999999999997,0.3999999999999999],[4.900000000000006,1.2999999999999998],[1.8000000000000114,1.1999999999999993],[0.5,0.8000000000000007],[0.09999999999999432,0.1999999999999993],[0.20000000000001705,0],[-0.4000000000000057,-1.5],[-2,-2.1999999999999993],[-5.799999999999997,-3.200000000000001],[-12.900000000000006,-2.3],[-13.899999999999999,0.4],[-3.5000000000000036,0.8999999999999995],[-3.099999999999998,1],[-2.5999999999999996,1.9000000000000004],[-1.3999999999999995,3.1000000000000014],[-2.2,6.599999999999998],[0.4,6.400000000000006],[5.6,11.300000000000011],[20.400000000000002,12.200000000000003],[12.5,-7.5]]}}},{"ty":"st","o":{"a":0,"k":0},"w":{"a":0,"k":0},"c":{"a":0,"k":[0,0,0,0]},"lc":3,"lj":1,"d":[]},{"o":{"a":0,"k":100},"r":1,"ty":"fl","c":{"a":0,"k":[0.6431372549019608,0.2980392156862745,0.2823529411764706,1]}},{"o":{"a":0,"k":100},"a":{"a":0,"k":[0,0]},"s":{"a":0,"k":[100,100]},"p":{"a":0,"k":[29,203]},"r":{"a":0,"k":0},"ty":"tr"}]},{"ty":"gr","it":[{"ty":"sh","ks":{"a":0,"k":{"c":true,"v":[[140.8,21.7],[125.9,71.5],[100,100.7],[40.2,99.7],[13.4,80],[1.3,49.5],[8.8,20.2],[12.2,14.8],[18.1,11.7],[111.9,3.9],[136.9,13.9],[139.7,17.2]],"i":[[-0.10000000000002274,-1.5999999999999979],[8.900000000000006,-15.200000000000003],[11.299999999999997,-6.700000000000003],[18.799999999999997,8.799999999999997],[7.200000000000001,8.599999999999994],[0.19999999999999996,11.100000000000001],[-4.200000000000001,9.3],[-1.5999999999999996,1.3999999999999986],[-2.1000000000000014,0.7000000000000011],[-31.30000000000001,-5.5],[-6.800000000000011,-6],[-0.6999999999999886,-1.299999999999999]],"o":[[1.5,17.500000000000004],[-6.700000000000003,11.299999999999997],[-17.900000000000006,10.5],[-10.100000000000001,-4.700000000000003],[-7.2,-8.599999999999994],[-0.19999999999999996,-10.200000000000003],[0.8999999999999986,-2],[1.6000000000000014,-1.5],[29.9,-10.6],[9,1.6],[1.0999999999999943,1],[0.8000000000000114,1.3000000000000007]]}}},{"ty":"st","o":{"a":0,"k":0},"w":{"a":0,"k":0},"c":{"a":0,"k":[0,0,0,0]},"lc":3,"lj":1,"d":[]},{"o":{"a":0,"k":100},"r":1,"ty":"fl","c":{"a":0,"k":[0.9333333333333333,0.9725490196078431,0.9882352941176471,1]}},{"o":{"a":0,"k":100},"a":{"a":0,"k":[0,0]},"s":{"a":0,"k":[100,100]},"p":{"a":0,"k":[29,203]},"r":{"a":0,"k":0},"ty":"tr"}]},{"ty":"gr","it":[{"ty":"sh","ks":{"a":0,"k":{"c":true,"v":[[198.4,106.2],[191.8,104.7],[187.6,108.3],[187.9,113.9],[192.9,108.4],[200.4,108.2]],"i":[[0.9000000000000057,0.3999999999999915],[2.1999999999999886,-0.5],[0.700000000000017,-1.7999999999999972],[-0.9000000000000057,-1.7000000000000028],[-2.3000000000000114,1.0999999999999943],[-2.4000000000000057,-1]],"o":[[-2.0999999999999943,-1],[-1.9000000000000057,0.3999999999999915],[-0.6999999999999886,1.7999999999999972],[0.799999999999983,-2.4000000000000057],[2.299999999999983,-1.1000000000000085],[-0.20000000000001705,-1]]}}},{"ty":"st","o":{"a":0,"k":0},"w":{"a":0,"k":0},"c":{"a":0,"k":[0,0,0,0]},"lc":3,"lj":1,"d":[]},{"o":{"a":0,"k":100},"r":1,"ty":"fl","c":{"a":0,"k":[0.36470588235294116,0.22745098039215686,0.24313725490196078,1]}},{"o":{"a":0,"k":100},"a":{"a":0,"k":[0,0]},"s":{"a":0,"k":[100,100]},"p":{"a":0,"k":[0,0]},"r":{"a":0,"k":0},"ty":"tr"}]},{"ty":"gr","it":[{"ty":"sh","ks":{"a":0,"k":{"c":true,"v":[[194.2,117.9],[189.6,114],[190.4,108.6],[189.2,105.3],[189.9,104.6],[204.7,102.1],[194.3,99.6],[187.4,103.9],[179.7,117.1],[179.7,117.8],[181.6,117.8],[188.1,116.4],[191.8,121.3],[187.7,127.5],[192.7,125.5],[194.8,120.2],[194.8,118.6]],"i":[[0.20000000000001705,0.19999999999998863],[1.5999999999999943,1.2999999999999972],[0.5999999999999943,1.8000000000000114],[-0.5999999999999943,1.1000000000000085],[-0.20000000000001705,0.20000000000000284],[-5,-1.1999999999999886],[3.5999999999999943,-0.6999999999999886],[2,-1.9000000000000057],[0.8000000000000114,-5.099999999999994],[-0.09999999999999432,-0.20000000000000284],[-0.6999999999999886,0.4000000000000057],[-2.1999999999999886,-0.5],[0.5,-2.299999999999997],[0.6000000000000227,-2.4000000000000057],[-1.0999999999999943,1.5],[-0.5,1.8999999999999915],[0.29999999999998295,0.5]],"o":[[-1.5,-1.3000000000000114],[-0.6999999999999886,-1.7000000000000028],[-0.4000000000000057,-1.1999999999999886],[0.20000000000001705,-0.29999999999999716],[4.299999999999983,-2.6999999999999886],[-3.299999999999983,-1.5999999999999943],[-2.700000000000017,0.6000000000000085],[-3.700000000000017,3.5999999999999943],[0,0.20000000000000284],[0.30000000000001137,0.6000000000000085],[2,-1.0999999999999943],[2.200000000000017,0.5],[-0.5,2.5],[1.8000000000000114,0.5999999999999943],[1.200000000000017,-1.5],[0.09999999999999432,-0.5],[-0.10000000000002274,-0.29999999999999716]]}}},{"ty":"st","o":{"a":0,"k":0},"w":{"a":0,"k":0},"c":{"a":0,"k":[0,0,0,0]},"lc":3,"lj":1,"d":[]},{"o":{"a":0,"k":100},"r":1,"ty":"fl","c":{"a":0,"k":[0.36470588235294116,0.22745098039215686,0.24313725490196078,1]}},{"o":{"a":0,"k":100},"a":{"a":0,"k":[0,0]},"s":{"a":0,"k":[100,100]},"p":{"a":0,"k":[0,0]},"r":{"a":0,"k":0},"ty":"tr"}]},{"ty":"gr","it":[{"ty":"sh","ks":{"a":0,"k":{"c":true,"v":[[24.6,12],[25.2,11.3],[19.6,8.3],[11.4,8.2],[3.8,11.4],[0.8,13.7],[15.8,11.2],[21.8,11.3]],"i":[[-0.9000000000000021,-0.40000000000000036],[-0.1999999999999993,0.1999999999999993],[2.099999999999998,0.5],[2.6999999999999993,-0.6999999999999993],[2.4000000000000004,-1.3000000000000007],[0.7,-1.0999999999999996],[-5.100000000000001,0.20000000000000107],[-2,-0.3000000000000007]],"o":[[0.1999999999999993,-0.1999999999999993],[-1.6999999999999993,-1.4000000000000004],[-2.700000000000003,-0.7000000000000011],[-2.700000000000001,0.7000000000000011],[-1.0999999999999996,0.5999999999999996],[4.7,-2],[2,-0.09999999999999964],[0.8999999999999986,0.09999999999999964]]}}},{"ty":"st","o":{"a":0,"k":0},"w":{"a":0,"k":0},"c":{"a":0,"k":[0,0,0,0]},"lc":3,"lj":1,"d":[]},{"o":{"a":0,"k":100},"r":1,"ty":"fl","c":{"a":0,"k":[0.36470588235294116,0.22745098039215686,0.24313725490196078,1]}},{"o":{"a":0,"k":100},"a":{"a":0,"k":[0,0]},"s":{"a":0,"k":[100,100]},"p":{"a":0,"k":[22,4]},"r":{"a":0,"k":0},"ty":"tr"}]},{"ty":"gr","it":[{"ty":"sh","ks":{"a":0,"k":{"c":true,"v":[[16.9,6.1],[22.8,10.8],[15.9,1.7],[4.3,2.3],[3.8,2.8],[4,3.6],[4.2,6.7],[11,4.9],[13.8,4.9]],"i":[[-0.9999999999999982,-0.5],[-1.8000000000000007,-1.8000000000000007],[3.5999999999999996,1.5999999999999999],[3.6000000000000005,-1.7999999999999998],[0.10000000000000009,-0.2999999999999998],[-0.20000000000000018,-0.20000000000000018],[0.2999999999999998,-1],[-2.3000000000000007,0.2999999999999998],[-0.9000000000000004,-0.20000000000000018]],"o":[[2.200000000000003,1.3000000000000007],[-0.40000000000000213,-4.000000000000001],[-3.700000000000001,-1.5999999999999999],[-0.20000000000000018,0.10000000000000009],[-0.09999999999999964,0.30000000000000027],[0.40000000000000036,0.8999999999999999],[2,-1.2000000000000002],[0.9000000000000004,-0.10000000000000053],[1,0.09999999999999964]]}}},{"ty":"st","o":{"a":0,"k":0},"w":{"a":0,"k":0},"c":{"a":0,"k":[0,0,0,0]},"lc":3,"lj":1,"d":[]},{"o":{"a":0,"k":100},"r":1,"ty":"fl","c":{"a":0,"k":[0.36470588235294116,0.22745098039215686,0.24313725490196078,1]}},{"o":{"a":0,"k":100},"a":{"a":0,"k":[0,0]},"s":{"a":0,"k":[100,100]},"p":{"a":0,"k":[22,4]},"r":{"a":0,"k":0},"ty":"tr"}]},{"ty":"gr","it":[{"ty":"sh","ks":{"a":0,"k":{"c":true,"v":[[16.4,0.5],[21.9,2.9],[22.3,8.9]],"i":[[3.200000000000003,1.5],[-1.1999999999999993,-1.7],[1,-1.9000000000000004]],"o":[[2.1000000000000014,-0.3],[1.2000000000000028,1.6999999999999997],[-0.40000000000000213,-3.7]]}}},{"ty":"st","o":{"a":0,"k":0},"w":{"a":0,"k":0},"c":{"a":0,"k":[0,0,0,0]},"lc":3,"lj":1,"d":[]},{"o":{"a":0,"k":100},"r":1,"ty":"fl","c":{"a":0,"k":[0.36470588235294116,0.22745098039215686,0.24313725490196078,1]}},{"o":{"a":0,"k":100},"a":{"a":0,"k":[0,0]},"s":{"a":0,"k":[100,100]},"p":{"a":0,"k":[22,53]},"r":{"a":0,"k":0},"ty":"tr"}]},{"ty":"gr","it":[{"ty":"sh","ks":{"a":0,"k":{"c":true,"v":[[0.9,4],[7.1,5.1],[12.3,8.1],[23.9,18],[22.5,14.5],[17.6,7.8],[10.5,3.7]],"i":[[3.1999999999999997,-1.2000000000000002],[-2.0999999999999996,-0.7999999999999998],[-1.700000000000001,-1.0999999999999996],[-3,-4.1],[0.6999999999999993,1.0999999999999996],[2,2.000000000000001],[2.6999999999999993,0.5]],"o":[[2.3000000000000003,-0.10000000000000009],[1.9000000000000004,0.8000000000000007],[4.300000000000001,2.8000000000000007],[0,-1.3000000000000007],[-1.3999999999999986,-2.4000000000000004],[-1.9000000000000021,-2],[-3.2,-0.6000000000000001]]}}},{"ty":"st","o":{"a":0,"k":0},"w":{"a":0,"k":0},"c":{"a":0,"k":[0,0,0,0]},"lc":3,"lj":1,"d":[]},{"o":{"a":0,"k":100},"r":1,"ty":"fl","c":{"a":0,"k":[0.36470588235294116,0.22745098039215686,0.24313725490196078,1]}},{"o":{"a":0,"k":100},"a":{"a":0,"k":[0,0]},"s":{"a":0,"k":[100,100]},"p":{"a":0,"k":[69,6]},"r":{"a":0,"k":0},"ty":"tr"}]},{"ty":"gr","it":[{"ty":"sh","ks":{"a":0,"k":{"c":true,"v":[[14,3.4],[6.6,4.4],[17.2,0.2],[26.8,6.7],[27,7.4],[26.4,8],[24.6,10.5],[19.6,5.5],[17.2,4]],"i":[[1.0999999999999996,0],[2.4000000000000004,-0.7000000000000002],[-3.8999999999999986,-0.6000000000000001],[-2.1000000000000014,-3.4000000000000004],[0.10000000000000142,-0.3000000000000007],[0.3000000000000007,-0.09999999999999964],[0.29999999999999716,-1],[1.8999999999999986,1.4000000000000004],[0.9000000000000021,0.40000000000000036]],"o":[[-2.5,0],[2.4000000000000004,-3.2],[4,0.6000000000000001],[0.09999999999999787,0.20000000000000018],[-0.10000000000000142,0.2999999999999998],[-0.8999999999999986,0.5999999999999996],[-1.1000000000000014,-2.0999999999999996],[-0.7000000000000028,-0.5999999999999996],[-0.8999999999999986,-0.6000000000000001]]}}},{"ty":"st","o":{"a":0,"k":0},"w":{"a":0,"k":0},"c":{"a":0,"k":[0,0,0,0]},"lc":3,"lj":1,"d":[]},{"o":{"a":0,"k":100},"r":1,"ty":"fl","c":{"a":0,"k":[0.36470588235294116,0.22745098039215686,0.24313725490196078,1]}},{"o":{"a":0,"k":100},"a":{"a":0,"k":[0,0]},"s":{"a":0,"k":[100,100]},"p":{"a":0,"k":[69,6]},"r":{"a":0,"k":0},"ty":"tr"}]},{"ty":"gr","it":[{"ty":"sh","ks":{"a":0,"k":{"c":true,"v":[[19.4,1.3],[13.5,0.5],[10.1,5.4]],"i":[[-3.599999999999998,-0.4],[1.9000000000000004,-0.8],[0.09999999999999964,-2.1000000000000005]],"o":[[-1.5999999999999979,-1.2999999999999998],[-1.9000000000000004,0.8],[2,-2.9000000000000004]]}}},{"ty":"st","o":{"a":0,"k":0},"w":{"a":0,"k":0},"c":{"a":0,"k":[0,0,0,0]},"lc":3,"lj":1,"d":[]},{"o":{"a":0,"k":100},"r":1,"ty":"fl","c":{"a":0,"k":[0.36470588235294116,0.22745098039215686,0.24313725490196078,1]}},{"o":{"a":0,"k":100},"a":{"a":0,"k":[0,0]},"s":{"a":0,"k":[100,100]},"p":{"a":0,"k":[69,65]},"r":{"a":0,"k":0},"ty":"tr"}]},{"ty":"gr","it":[{"ty":"sh","ks":{"a":0,"k":{"c":true,"v":[[28.2,131.9],[45.8,140.8],[32.7,139.6],[28.9,136.6]],"i":[[-0.5999999999999979,1.5],[-6.699999999999996,-0.6000000000000227],[4,2.0999999999999943],[1,1.3000000000000114]],"o":[[5.300000000000001,4.099999999999994],[-4.099999999999994,1.8999999999999773],[-1.4000000000000021,-0.799999999999983],[-0.8999999999999986,-1.4000000000000057]]}}},{"ty":"st","o":{"a":0,"k":0},"w":{"a":0,"k":0},"c":{"a":0,"k":[0,0,0,0]},"lc":3,"lj":1,"d":[]},{"o":{"a":0,"k":100},"r":1,"ty":"fl","c":{"a":0,"k":[0.36470588235294116,0.22745098039215686,0.24313725490196078,1]}},{"o":{"a":0,"k":100},"a":{"a":0,"k":[0,0]},"s":{"a":0,"k":[100,100]},"p":{"a":0,"k":[0,0]},"r":{"a":0,"k":0},"ty":"tr"}]},{"ty":"gr","it":[{"ty":"sh","ks":{"a":0,"k":{"c":true,"v":[[57.9,99.1],[45.3,116.1],[45.6,120.5],[51.4,126],[59.5,127.4],[68.3,125.1],[69.7,121.2],[68.8,108.1],[67.3,106.4],[65.2,106.6],[64.8,110.8],[61.3,110.8],[61.5,106.8],[63.2,103.9],[61.6,100.5]],"i":[[1.3000000000000043,0.20000000000000284],[0.8000000000000043,-7.299999999999997],[-0.3999999999999986,-1.4000000000000057],[-2.6000000000000014,-1],[-2.700000000000003,-0.20000000000000284],[-1.8999999999999915,2.5],[-0.29999999999999716,1.3999999999999915],[2.1000000000000085,3.9000000000000057],[0.7000000000000028,0.29999999999999716],[0.5,-0.5999999999999943],[0.6000000000000085,-1.2999999999999972],[0.8000000000000043,1.2000000000000028],[-0.7999999999999972,1.2000000000000028],[-0.30000000000000426,1.0999999999999943],[1.1000000000000014,0.7999999999999972]],"o":[[-6.799999999999997,2.9000000000000057],[-0.09999999999999432,1.5],[0.8999999999999986,2.5999999999999943],[2.6000000000000014,1],[3.200000000000003,0.19999999999998863],[0.7999999999999972,-1.0999999999999943],[0.7999999999999972,-4.400000000000006],[-0.3999999999999915,-0.6999999999999886],[-0.7000000000000028,-0.4000000000000057],[-1,1.1000000000000085],[-0.5999999999999943,1.2999999999999972],[-0.7999999999999972,-1.0999999999999943],[0.6000000000000014,-1],[0.19999999999999574,-1.3000000000000114],[-1.1000000000000014,-0.9000000000000057]]}}},{"ty":"st","o":{"a":0,"k":0},"w":{"a":0,"k":0},"c":{"a":0,"k":[0,0,0,0]},"lc":3,"lj":1,"d":[]},{"o":{"a":0,"k":100},"r":1,"ty":"fl","c":{"a":0,"k":[0.36470588235294116,0.22745098039215686,0.24313725490196078,1]}},{"o":{"a":0,"k":100},"a":{"a":0,"k":[0,0]},"s":{"a":0,"k":[100,100]},"p":{"a":0,"k":[0,0]},"r":{"a":0,"k":0},"ty":"tr"}]},{"ty":"gr","it":[{"ty":"sh","ks":{"a":0,"k":{"c":true,"v":[[59.5,8.7],[63,13.2],[77.6,28.7],[76.3,23.4],[68.1,9.1],[63.6,6.1]],"i":[[0.20000000000000284,-1.799999999999999],[-1.7000000000000028,-1],[-3.5,-6.300000000000001],[0.7000000000000028,1.7000000000000028],[3.6000000000000085,4.200000000000001],[1.8999999999999986,0.3000000000000007]],"o":[[-0.20000000000000284,2],[6,3.900000000000002],[0.20000000000000284,-1.8000000000000007],[-2.299999999999997,-5],[-1.1999999999999886,-1.3999999999999995],[-1.7000000000000028,-0.2999999999999998]]}}},{"ty":"st","o":{"a":0,"k":0},"w":{"a":0,"k":0},"c":{"a":0,"k":[0,0,0,0]},"lc":3,"lj":1,"d":[]},{"o":{"a":0,"k":100},"r":1,"ty":"fl","c":{"a":0,"k":[0.36470588235294116,0.22745098039215686,0.24313725490196078,1]}},{"o":{"a":0,"k":100},"a":{"a":0,"k":[0,0]},"s":{"a":0,"k":[100,100]},"p":{"a":0,"k":[25,38]},"r":{"a":0,"k":0},"ty":"tr"}]},{"ty":"gr","it":[{"ty":"sh","ks":{"a":0,"k":{"c":true,"v":[[17.6,4.5],[14.6,4.8],[0.1,9.3],[8.6,2.8],[17.9,1.1],[19,3.8]],"i":[[0.5,0],[1,0],[5.300000000000001,-2.6000000000000005],[-3.1999999999999993,1.6000000000000005],[-3.099999999999998,-0.9000000000000001],[0.6000000000000014,-0.7999999999999998]],"o":[[-1,0],[-5.4,0.20000000000000018],[2.1999999999999997,-2.8000000000000007],[2.9000000000000004,-1.4999999999999998],[0.9000000000000021,0.2999999999999998],[-0.3000000000000007,0.40000000000000036]]}}},{"ty":"st","o":{"a":0,"k":0},"w":{"a":0,"k":0},"c":{"a":0,"k":[0,0,0,0]},"lc":3,"lj":1,"d":[]},{"o":{"a":0,"k":100},"r":1,"ty":"fl","c":{"a":0,"k":[0.36470588235294116,0.22745098039215686,0.24313725490196078,1]}},{"o":{"a":0,"k":100},"a":{"a":0,"k":[0,0]},"s":{"a":0,"k":[100,100]},"p":{"a":0,"k":[25,38]},"r":{"a":0,"k":0},"ty":"tr"}]},{"ty":"gr","it":[{"ty":"sh","ks":{"a":0,"k":{"c":true,"v":[[15.6,4.3],[8.6,9.8],[6.2,13.1],[5.8,13.9],[6.3,14.3],[8.1,12.4],[11.7,9],[19.7,4.4],[37.1,6.5],[37.1,24.4],[27.8,35.6],[15,41.4],[3.2,36.4],[1.1,30.8],[1.2,28],[1.9,25.6],[0.7,28.3],[0.8,32.7],[6.1,40.2],[23.8,39.9],[37.5,26.5],[39.9,8],[31.1,1.2]],"i":[[4.6,-2.5],[2,-2.200000000000001],[0.7000000000000002,-1.1999999999999993],[0.10000000000000053,-0.3000000000000007],[-0.09999999999999964,0],[-0.39999999999999947,0.40000000000000036],[-1.299999999999999,1],[-2.8999999999999986,1],[-4.100000000000001,-5.1],[3.1000000000000014,-5.5],[3.599999999999998,-3.1000000000000014],[4.800000000000001,-0.29999999999999716],[2.7,3.700000000000003],[0.19999999999999996,1.9999999999999964],[-0.09999999999999987,1],[0,0.09999999999999787],[0.10000000000000009,-0.1999999999999993],[-0.4,-1.4000000000000021],[-2.6999999999999997,-1.7000000000000028],[-5.400000000000002,2.8999999999999986],[-3.3999999999999986,5.300000000000001],[3,6.199999999999999],[4,0.7]],"o":[[-2.5999999999999996,1.4000000000000004],[-0.8999999999999995,1],[-0.10000000000000053,0.3000000000000007],[0,0.09999999999999964],[0.6000000000000005,-0.20000000000000107],[1.0999999999999996,-1.200000000000001],[2.4000000000000004,-2],[5.5,-2.0000000000000004],[4.199999999999996,5.300000000000001],[-2.3999999999999986,4.200000000000003],[-3.6000000000000014,3.1000000000000014],[-4.5,0.30000000000000426],[-1.2000000000000002,-1.6999999999999957],[-0.10000000000000009,-0.9000000000000021],[0,-0.1999999999999993],[-0.2999999999999998,-0.20000000000000284],[-0.29999999999999993,1.5],[0.7,3.0999999999999943],[5.4,3.3999999999999986],[5.599999999999998,-3],[3.5,-5.5],[-1.6999999999999957,-3.5999999999999996],[-5.100000000000001,-0.7999999999999999]]}}},{"ty":"st","o":{"a":0,"k":0},"w":{"a":0,"k":0},"c":{"a":0,"k":[0,0,0,0]},"lc":3,"lj":1,"d":[]},{"o":{"a":0,"k":100},"r":1,"ty":"fl","c":{"a":0,"k":[0.6431372549019608,0.2980392156862745,0.2823529411764706,1]}},{"o":{"a":0,"k":100},"a":{"a":0,"k":[0,0]},"s":{"a":0,"k":[100,100]},"p":{"a":0,"k":[122,92]},"r":{"a":0,"k":0},"ty":"tr"}]},{"ty":"gr","it":[{"ty":"sh","ks":{"a":0,"k":{"c":false,"v":[[6.1,14.1],[27.6,1.9],[33.6,2.8],[40.7,16.4],[33.4,30.9],[21,40.5],[5.8,39.4],[2,25.5]],"i":[[0,0],[-8.600000000000001,0.30000000000000027],[-1.9000000000000021,-0.7999999999999998],[0.5999999999999943,-5.399999999999999],[3.6000000000000014,-4.199999999999999],[4.899999999999999,-1.8999999999999986],[4.3999999999999995,3],[-2.6,4.600000000000001]],"o":[[4.6,-7.199999999999999],[2,-0.09999999999999987],[5.100000000000001,2.1000000000000005],[-0.6000000000000014,5.5],[-3.3999999999999986,4],[-4.899999999999999,1.8999999999999986],[-4.3,-3],[0,0]]}}},{"ty":"st","o":{"a":0,"k":0},"w":{"a":0,"k":0},"c":{"a":0,"k":[0,0,0,0]},"lc":3,"lj":1,"d":[]},{"o":{"a":0,"k":100},"r":1,"ty":"fl","c":{"a":0,"k":[0.9137254901960784,0.6901960784313725,0.5725490196078431,1]}},{"o":{"a":0,"k":100},"a":{"a":0,"k":[0,0]},"s":{"a":0,"k":[100,100]},"p":{"a":0,"k":[122,92]},"r":{"a":0,"k":0},"ty":"tr"}]},{"ty":"gr","it":[{"ty":"sh","ks":{"a":0,"k":{"c":true,"v":[[21.9,111.7],[45.3,83.9],[60.2,87.1],[65.3,94.4],[70.2,129.8],[69.8,131.4],[68.5,132],[24,117.3],[22,114.9]],"i":[[-0.1999999999999993,1],[-12.299999999999997,2.6999999999999886],[-4.400000000000006,-3.8999999999999915],[-1.2999999999999972,-2.700000000000003],[0.3999999999999915,-11.700000000000017],[0.4000000000000057,-0.4000000000000057],[0.5,-0.09999999999999432],[13.200000000000003,11.700000000000003],[0.3999999999999986,0.8999999999999915]],"o":[[1.8000000000000007,-14.100000000000009],[4.800000000000004,-1.1000000000000085],[2.1999999999999957,1.9000000000000057],[5.400000000000006,11.299999999999997],[0,0.5999999999999943],[-0.29999999999999716,0.4000000000000057],[-14.5,2.5],[-0.8000000000000007,-0.7000000000000028],[-0.3000000000000007,-1.1000000000000085]]}}},{"ty":"st","o":{"a":0,"k":0},"w":{"a":0,"k":0},"c":{"a":0,"k":[0,0,0,0]},"lc":3,"lj":1,"d":[]},{"o":{"a":0,"k":100},"r":1,"ty":"fl","c":{"a":0,"k":[0.7019607843137254,0.21176470588235294,0.16470588235294117,1]}},{"o":{"a":0,"k":100},"a":{"a":0,"k":[0,0]},"s":{"a":0,"k":[100,100]},"p":{"a":0,"k":[0,0]},"r":{"a":0,"k":0},"ty":"tr"}]},{"ty":"gr","it":[{"ty":"sh","ks":{"a":0,"k":{"c":false,"v":[[35.2,83.6],[24.5,92.1],[19.5,105.1],[18.2,119.7],[27.8,132.7],[65.9,139.6],[71.3,136.6],[73.2,129.3],[72,104],[64.1,83.3],[45.8,77.8],[28.6,87.1]],"i":[[0,0],[2.5,-4],[1.1999999999999993,-4.5],[-1.0999999999999979,-4.799999999999997],[-4.400000000000002,-3.299999999999983],[-12.900000000000006,3.700000000000017],[-1.2999999999999972,1.5999999999999943],[-0.10000000000000853,2.5],[1,8.400000000000006],[5.300000000000011,5.299999999999997],[6.5,-1],[4.699999999999996,-4.799999999999997]],"o":[[-4.5000000000000036,1.2000000000000028],[-2.5,3.9000000000000057],[-1.3000000000000007,4.800000000000011],[1.3000000000000007,5.299999999999997],[10.7,8],[2,-0.5999999999999943],[1.6000000000000085,-2],[0.20000000000000284,-8.500000000000014],[-0.9000000000000057,-7.5],[-4.699999999999996,-4.599999999999994],[-6.5,1],[0,0]]}}},{"ty":"st","o":{"a":0,"k":0},"w":{"a":0,"k":0},"c":{"a":0,"k":[0,0,0,0]},"lc":3,"lj":1,"d":[]},{"o":{"a":0,"k":100},"r":1,"ty":"fl","c":{"a":0,"k":[0.8862745098039215,0.6352941176470588,0.5254901960784314,1]}},{"o":{"a":0,"k":100},"a":{"a":0,"k":[0,0]},"s":{"a":0,"k":[100,100]},"p":{"a":0,"k":[0,0]},"r":{"a":0,"k":0},"ty":"tr"}]},{"ty":"gr","it":[{"ty":"sh","ks":{"a":0,"k":{"c":true,"v":[[51.1,21.6],[87.1,15.3],[85.8,37.9],[105.7,21.4],[113,50.8],[124.5,28.7],[132.6,101.8],[100,153.3],[137.6,133.1],[155.2,103.5],[133.1,23.3],[51.1,9.1],[64.4,8.1]],"i":[[3.1999999999999957,-5.5],[-12.299999999999997,0],[0.4000000000000057,-7.599999999999998],[-6.1000000000000085,2.5],[-1.2000000000000028,-10.5],[-5.299999999999997,6.699999999999999],[5.800000000000011,-38.9],[18.5,-10],[-10.299999999999997,10.099999999999994],[-3.3999999999999773,11.099999999999994],[21.599999999999994,19.7],[27.1,-11.2],[-4.500000000000007,0.3000000000000007]],"o":[[11.5,-4.100000000000001],[-0.3999999999999915,7.5],[3.9000000000000057,-5.199999999999996],[1.2000000000000028,10.5],[6.900000000000006,-5],[7.300000000000011,19.8],[-3.0999999999999943,20.900000000000006],[13.900000000000006,-3.8000000000000114],[8.300000000000011,-8.099999999999994],[8.5,-28],[-21.599999999999994,-19.7],[4.399999999999999,-0.29999999999999893],[-5.6000000000000085,3.3000000000000007]]}}},{"ty":"st","o":{"a":0,"k":0},"w":{"a":0,"k":0},"c":{"a":0,"k":[0,0,0,0]},"lc":3,"lj":1,"d":[]},{"o":{"a":0,"k":100},"r":1,"ty":"fl","c":{"a":0,"k":[0.8862745098039215,0.6352941176470588,0.5254901960784314,1]}},{"o":{"a":0,"k":100},"a":{"a":0,"k":[0,0]},"s":{"a":0,"k":[100,100]},"p":{"a":0,"k":[0,0]},"r":{"a":0,"k":0},"ty":"tr"}]},{"ty":"gr","it":[{"ty":"sh","ks":{"a":0,"k":{"c":true,"v":[[45.3,13.4],[81.1,2.1],[98.2,3.6],[101.8,4.4],[102.4,4.2],[101.7,3.6],[94.4,1.7],[56.7,5.5],[28.7,29],[20.7,48.1],[19,58.2],[18,67.9],[8.3,85.1],[0.9,100.8],[13.7,136.2],[29.5,148],[48.1,156.8],[69.3,159.5],[90.2,157.3],[128,143],[154.4,113.4],[159.6,72.4],[146,35.1],[117.2,9.7],[109.2,6.3],[102.3,4.1],[109.1,6.6],[117.3,10.3],[133.2,21.3],[154,54],[158.4,94.8],[140.8,130.8],[106.7,151.4],[66.1,157.9],[45.6,154.2],[27.2,144.8],[3.2,116],[3.3,97.1],[13.3,80.5],[20.1,64.6],[20.9,54.1],[23.7,44.1],[32.2,26.3]],"i":[[-5.099999999999994,3.4999999999999982],[-12.799999999999997,0.3999999999999999],[-5.700000000000003,-1.1],[-1.2000000000000028,-0.20000000000000018],[-0.10000000000000853,0.39999999999999947],[0.3999999999999915,0.19999999999999973],[2.5,0.5000000000000002],[11.899999999999991,-4.7],[6.400000000000002,-10.899999999999999],[2,-6.600000000000001],[0.1999999999999993,-3.5],[0.8000000000000007,-3.200000000000003],[3.6999999999999993,-5.299999999999997],[0.9999999999999999,-5.799999999999997],[-9.1,-9.099999999999994],[-5.699999999999999,-3.3000000000000114],[-6.399999999999999,-2.200000000000017],[-7.199999999999996,0.19999999999998863],[-6.900000000000006,1.299999999999983],[-11.400000000000006,7.199999999999989],[-5.5,12.399999999999991],[1.9000000000000057,13.799999999999997],[7.199999999999989,11.100000000000001],[11.700000000000003,5.700000000000001],[2.700000000000003,1],[0.10000000000000853,-0.19999999999999973],[-0.5,-0.09999999999999964],[-2.5999999999999943,-1.3000000000000007],[-4.699999999999989,-4.300000000000001],[-4.300000000000011,-12.399999999999999],[2,-13.700000000000003],[9.599999999999994,-9.800000000000011],[12.599999999999994,-4.300000000000011],[13.700000000000003,0.09999999999999432],[6.600000000000001,2.6000000000000227],[5.800000000000001,3.5999999999999943],[3.5,12.599999999999994],[-2.0999999999999996,6],[-3.6000000000000014,5.400000000000006],[-0.7000000000000028,5.900000000000006],[-0.5,3.5],[-1.1999999999999993,3.1999999999999957],[-3.8000000000000043,5.5]],"o":[[10.600000000000001,-7.1000000000000005],[5.700000000000003,-0.20000000000000018],[1.2000000000000028,0.19999999999999973],[0.4000000000000057,0.09999999999999964],[0.09999999999999432,-0.5],[-2.4000000000000057,-0.8000000000000003],[-12.600000000000009,-2.4],[-11.700000000000003,4.6],[-3.5,5.899999999999999],[-1,3.299999999999997],[-0.1999999999999993,3.1999999999999957],[-1.5,6.5],[-3.4000000000000004,4.800000000000011],[-2.4,13.100000000000009],[4.699999999999999,4.700000000000017],[5.899999999999999,3.4000000000000057],[6.899999999999999,2.3999999999999773],[7,-0.09999999999999432],[13.299999999999997,-2.5],[11.300000000000011,-7.199999999999989],[5.699999999999989,-12.800000000000011],[-1.799999999999983,-13.100000000000009],[-7.099999999999994,-10.900000000000002],[-2.6000000000000085,-1.299999999999999],[-0.4000000000000057,-0.20000000000000018],[0,0],[2.8000000000000114,1.1000000000000005],[5.700000000000003,3],[9.700000000000017,8.8],[4.5,13],[-2,13.600000000000009],[-9.300000000000011,9.599999999999994],[-13,4.400000000000006],[-7.099999999999994,0],[-6.399999999999999,-2.5],[-10.8,-6.800000000000011],[-1.7000000000000002,-6.099999999999994],[2.2,-6.199999999999989],[3.3000000000000007,-4.900000000000006],[0.3999999999999986,-3.499999999999993],[0.5,-3.5],[2.1999999999999993,-6.300000000000004],[3.5999999999999943,-5]]}}},{"ty":"st","o":{"a":0,"k":0},"w":{"a":0,"k":0},"c":{"a":0,"k":[0,0,0,0]},"lc":3,"lj":1,"d":[]},{"o":{"a":0,"k":100},"r":1,"ty":"fl","c":{"a":0,"k":[0.6431372549019608,0.2980392156862745,0.2823529411764706,1]}},{"o":{"a":0,"k":100},"a":{"a":0,"k":[0,0]},"s":{"a":0,"k":[100,100]},"p":{"a":0,"k":[0,0]},"r":{"a":0,"k":0},"ty":"tr"}]},{"ty":"gr","it":[{"ty":"sh","ks":{"a":0,"k":{"c":true,"v":[[102.3,4.2],[55.2,7],[23.9,41.2],[20.2,53.8],[18.8,68.1],[3.1,95.7],[9.6,130.5],[39,152.3],[52.3,157.4],[66.8,158.9],[155.2,110.3],[151.2,45.6]],"i":[[22.5,6.8999999999999995],[14.700000000000003,-6.3],[5.5,-15.800000000000004],[0.6000000000000014,-4.399999999999999],[1.0999999999999979,-4.699999999999996],[3.9,-9.900000000000006],[-7.5,-9.799999999999997],[-11.100000000000001,-5.300000000000011],[-4.599999999999994,-1.0999999999999943],[-4.899999999999999,0],[-13.5,34.60000000000001],[9.200000000000017,20.1]],"o":[[-15.299999999999997,-4.7],[-15.600000000000001,6.699999999999999],[-1.3999999999999986,4.199999999999996],[-0.6999999999999993,4.700000000000003],[-2.5,10.400000000000006],[-4.5,11.5],[7.500000000000002,9.800000000000011],[4.299999999999997,2.0999999999999943],[4.700000000000003,1.1999999999999886],[34.10000000000001,-0.09999999999999432],[8.100000000000023,-20.89999999999999],[-10,-21.6]]}}},{"ty":"st","o":{"a":0,"k":0},"w":{"a":0,"k":0},"c":{"a":0,"k":[0,0,0,0]},"lc":3,"lj":1,"d":[]},{"o":{"a":0,"k":100},"r":1,"ty":"fl","c":{"a":0,"k":[0.9137254901960784,0.6901960784313725,0.5725490196078431,1]}},{"o":{"a":0,"k":100},"a":{"a":0,"k":[0,0]},"s":{"a":0,"k":[100,100]},"p":{"a":0,"k":[0,0]},"r":{"a":0,"k":0},"ty":"tr"}]},{"ty":"gr","it":[{"ty":"sh","ks":{"a":0,"k":{"c":true,"v":[[179.6,201.7],[169.1,151.4],[154.7,132.5],[134.8,130.8],[104.8,137.5],[82.1,159.5],[67.4,187.9],[65.9,192.1],[67.4,196.1],[73.6,195.5],[100.1,184.8],[128.2,185.4],[147.1,196.8],[173.1,206.7],[179,205.4]],"i":[[0,1.200000000000017],[6.400000000000006,16],[7.300000000000011,3.5],[6.699999999999989,-0.6000000000000227],[9.200000000000003,-4.599999999999994],[5.700000000000003,-9],[4.699999999999989,-9.599999999999994],[0.19999999999998863,-1.5],[-1.2000000000000028,-0.9000000000000057],[-2,1],[-9.299999999999997,2.3999999999999773],[-8.899999999999991,-3.5],[-6.299999999999983,-3.9000000000000057],[-9.199999999999989,-1.5999999999999943],[-1.1999999999999886,1.799999999999983]],"o":[[-0.5999999999999943,-17.19999999999999],[-3,-7.5],[-6.099999999999994,-2.9000000000000057],[-10.300000000000011,1],[-9.5,4.800000000000011],[-5.699999999999989,9],[-0.7000000000000028,1.299999999999983],[-0.20000000000000284,1.5],[1.7999999999999972,1.200000000000017],[8.600000000000009,-4],[9.200000000000003,-2.4000000000000057],[6.800000000000011,2.6999999999999886],[7.900000000000006,4.899999999999977],[2.0999999999999943,0.4000000000000057],[0.5999999999999943,-1.0999999999999943]]}}},{"ty":"st","o":{"a":0,"k":0},"w":{"a":0,"k":0},"c":{"a":0,"k":[0,0,0,0]},"lc":3,"lj":1,"d":[]},{"o":{"a":0,"k":100},"r":1,"ty":"fl","c":{"a":0,"k":[0.8862745098039215,0.6352941176470588,0.5254901960784314,1]}},{"o":{"a":0,"k":100},"a":{"a":0,"k":[0,0]},"s":{"a":0,"k":[100,100]},"p":{"a":0,"k":[0,0]},"r":{"a":0,"k":0},"ty":"tr"}]},{"ty":"gr","it":[{"ty":"sh","ks":{"a":0,"k":{"c":true,"v":[[20.8,39.4],[45.2,13.9],[52.1,9.4],[54.8,7.9],[54.7,7.4],[53.5,7.7],[39.8,16.5],[15.8,43.9],[6.4,61.7],[0.3,81.2],[5.5,99.5],[21.5,110.4],[62.3,122],[82.5,118.3],[98.2,107.2],[115.5,72.4],[119.1,51.6],[119.2,30.7],[113.1,12],[95.9,2.6],[66.2,2.1],[52.4,6.1],[40.3,12],[47.9,8.4],[56.9,5],[76.4,1.5],[96.7,3.9],[112.8,13.9],[118.1,33.3],[117.4,54.1],[106.4,93.2],[78.4,118.3],[37,115.4],[18,106.9],[3.9,94.4],[3.5,74.6],[11,55.8]],"i":[[-3.6999999999999993,5.100000000000001],[-9.400000000000006,7.1],[-2.3999999999999986,1.299999999999999],[-0.8999999999999986,0.5999999999999996],[0.09999999999999432,0.1999999999999993],[0.20000000000000284,-0.10000000000000053],[4.100000000000001,-3.4000000000000004],[6.599999999999998,-10.299999999999997],[2.5999999999999996,-6.200000000000003],[0.8999999999999999,-6.700000000000003],[-4.6,-5.099999999999994],[-5.800000000000001,-2.8000000000000114],[-14.399999999999999,-0.09999999999999432],[-6.400000000000006,2.700000000000003],[-4.400000000000006,4.700000000000003],[-3.0999999999999943,12.699999999999989],[-0.7999999999999972,7],[0.7999999999999972,7.0000000000000036],[3.8000000000000114,5.199999999999999],[6.199999999999989,1.6],[9.799999999999997,-2],[4.5,-1.6999999999999993],[-0.19999999999999574,-0.40000000000000036],[-0.6000000000000014,0.1999999999999993],[-3.1000000000000014,0.9000000000000004],[-6.6000000000000085,0.30000000000000004],[-6.5,-2],[-3.3999999999999915,-5.700000000000001],[-0.5999999999999943,-6.4999999999999964],[0.8999999999999915,-6.899999999999999],[6.3999999999999915,-12],[12.399999999999991,-4],[13.100000000000001,4.799999999999997],[6.100000000000001,3.299999999999997],[3.0000000000000004,5.699999999999989],[-1.9,6.400000000000006],[-3,6]],"o":[[6.899999999999999,-9.5],[2.1999999999999957,-1.700000000000001],[0.8999999999999986,-0.5],[0.20000000000000284,-0.10000000000000053],[-0.10000000000000142,-0.20000000000000018],[-5,2.1000000000000005],[-9.399999999999999,7.800000000000001],[-3.6000000000000014,5.700000000000003],[-2.6000000000000005,6.200000000000003],[-0.8999999999999999,6.799999999999997],[4.300000000000001,4.900000000000006],[12.799999999999997,6.099999999999994],[6.900000000000006,0.09999999999999432],[6,-2.5],[9.099999999999994,-9.600000000000009],[1.5999999999999943,-6.800000000000011],[0.7000000000000028,-6.899999999999999],[-0.7999999999999972,-6.300000000000001],[-3.8999999999999915,-5.4],[-9.700000000000003,-2.600000000000003],[-4.700000000000003,0.8999999999999999],[-1,0.40000000000000036],[0,0],[2.8999999999999986,-1.3000000000000007],[6.399999999999999,-1.9],[6.799999999999997,-0.30000000000000004],[6.099999999999994,1.9],[3.4000000000000057,5.700000000000001],[0.6000000000000085,6.900000000000006],[-1.7000000000000028,13.399999999999999],[-6.1000000000000085,11.299999999999997],[-13.600000000000009,4.400000000000006],[-6.5,-2.4000000000000057],[-5.5,-3],[-3.3,-6.200000000000003],[1.9000000000000004,-6.5],[2.9000000000000004,-5.899999999999999]]}}},{"ty":"st","o":{"a":0,"k":0},"w":{"a":0,"k":0},"c":{"a":0,"k":[0,0,0,0]},"lc":3,"lj":1,"d":[]},{"o":{"a":0,"k":100},"r":1,"ty":"fl","c":{"a":0,"k":[0.6431372549019608,0.2980392156862745,0.2823529411764706,1]}},{"o":{"a":0,"k":100},"a":{"a":0,"k":[0,0]},"s":{"a":0,"k":[100,100]},"p":{"a":0,"k":[57,135]},"r":{"a":0,"k":0},"ty":"tr"}]},{"ty":"gr","it":[{"ty":"sh","ks":{"a":0,"k":{"c":false,"v":[[54.8,7.4],[38,18.9],[3.4,71.9],[1.8,91.6],[21.8,109.6],[52,120.2],[83.4,117],[107.2,93],[117.1,60.2],[115.8,19.1],[111.1,10.6],[103.6,5.7],[40.3,11.9]],"i":[[0,0],[5.100000000000001,-4.599999999999998],[6.6,-20.300000000000004],[-2,-6.3999999999999915],[-8.3,-4],[-10.600000000000001,-1.7999999999999972],[-9.700000000000003,4.5],[-5.299999999999997,10.200000000000003],[-1.7999999999999972,11.299999999999997],[4.5,13.100000000000001],[2.200000000000003,2.3000000000000007],[2.700000000000003,1.2000000000000002],[19.1,-10.9]],"o":[[-6.199999999999996,2.799999999999999],[-15.899999999999999,14.200000000000003],[-2.0999999999999996,6.3999999999999915],[2.9000000000000004,8.800000000000011],[9.599999999999998,4.6000000000000085],[10.5,1.7999999999999972],[10.399999999999991,-4.799999999999997],[5.299999999999997,-10.200000000000003],[2.200000000000003,-13.700000000000003],[-1.0999999999999943,-3.1000000000000014],[-2.0999999999999943,-2.1999999999999993],[-20.099999999999994,-8.9],[0,0]]}}},{"ty":"st","o":{"a":0,"k":0},"w":{"a":0,"k":0},"c":{"a":0,"k":[0,0,0,0]},"lc":3,"lj":1,"d":[]},{"o":{"a":0,"k":100},"r":1,"ty":"fl","c":{"a":0,"k":[0.9137254901960784,0.6901960784313725,0.5725490196078431,1]}},{"o":{"a":0,"k":100},"a":{"a":0,"k":[0,0]},"s":{"a":0,"k":[100,100]},"p":{"a":0,"k":[57,135]},"r":{"a":0,"k":0},"ty":"tr"}]},{"ty":"gr","it":[{"ty":"sh","ks":{"a":0,"k":{"c":true,"v":[[11.6,8.7],[29.3,2.4],[38,2.6],[40.6,3.1],[39.3,1.9],[30.8,0.9],[21.1,1.8],[6.4,12.2],[1,31.5],[6.1,51.2],[16.6,68.6],[29.4,83.9],[46,95.2],[65.1,94],[71.8,76.3],[71.3,55.4],[60.8,25.1],[51.2,11.6],[45.7,5.9],[40.7,2.8],[45.5,6.2],[52.1,13.5],[63,31],[71,70.5],[69.9,81.1],[66.6,90.2],[49.6,94.7],[32.6,84.5],[19.5,69.5],[4,40]],"i":[[-8.5,8.2],[-6.199999999999999,0.30000000000000027],[-2.8999999999999986,-0.3999999999999999],[-0.10000000000000142,0.10000000000000009],[0.20000000000000284,0],[2.900000000000002,0],[3.1999999999999993,-0.7],[3.4000000000000004,-5.199999999999999],[-0.09999999999999998,-6.800000000000001],[-2.8999999999999995,-6.200000000000003],[-3.900000000000002,-5.499999999999993],[-4.799999999999997,-4.700000000000003],[-6.299999999999997,-2.5],[-5.3999999999999915,4.400000000000006],[-0.7999999999999972,6.200000000000003],[1.1000000000000085,6.800000000000004],[5.299999999999997,9.399999999999999],[3.5999999999999943,4.200000000000001],[1.8999999999999986,1.7999999999999998],[0.19999999999999574,-0.5],[-0.29999999999999716,-0.20000000000000018],[-2.1000000000000014,-2.5],[-3,-6.199999999999999],[0.5,-13.399999999999999],[0.5999999999999943,-3.5],[1.9000000000000057,-2.700000000000003],[6.100000000000001,1.7000000000000028],[4.899999999999999,4.400000000000006],[3.8999999999999986,5.400000000000006],[2.7,10.899999999999999]],"o":[[4.500000000000002,-4.6],[2.900000000000002,-0.10000000000000009],[0.20000000000000284,0],[0.8999999999999986,-0.6000000000000001],[-2.6999999999999957,-0.8999999999999999],[-3.3000000000000007,0],[-6.100000000000001,1.4000000000000001],[-3.7,5.699999999999999],[0.19999999999999996,6.799999999999997],[2.9000000000000004,6.099999999999994],[3.799999999999997,5.400000000000006],[4.800000000000004,4.599999999999994],[6.100000000000001,2.3999999999999915],[5.1000000000000085,-4.299999999999997],[0.7999999999999972,-6.799999999999997],[-1.7000000000000028,-10.699999999999996],[-2.6999999999999957,-4.900000000000002],[-1.7000000000000028,-2],[-0.30000000000000426,-0.20000000000000018],[0.09999999999999432,-0.2999999999999998],[2.3999999999999986,2.2],[4.399999999999999,5.399999999999999],[5.900000000000006,12.100000000000001],[-0.09999999999999432,3.5999999999999943],[-0.6000000000000085,3.200000000000003],[-3.799999999999997,5.700000000000003],[-6.399999999999999,-1.7999999999999972],[-4.900000000000002,-4.400000000000006],[-6.5,-8.899999999999999],[-2.9,-10.8]]}}},{"ty":"st","o":{"a":0,"k":0},"w":{"a":0,"k":0},"c":{"a":0,"k":[0,0,0,0]},"lc":3,"lj":1,"d":[]},{"o":{"a":0,"k":100},"r":1,"ty":"fl","c":{"a":0,"k":[0.6431372549019608,0.2980392156862745,0.2823529411764706,1]}},{"o":{"a":0,"k":100},"a":{"a":0,"k":[0,0]},"s":{"a":0,"k":[100,100]},"p":{"a":0,"k":[3,190]},"r":{"a":0,"k":0},"ty":"tr"}]},{"ty":"gr","it":[{"ty":"sh","ks":{"a":0,"k":{"c":true,"v":[[40.6,2.9],[32.7,1.6],[16.8,4.1],[1.9,33.9],[15.9,66.2],[43.7,93.4],[64.8,93.4],[70.6,80.3],[47.2,7.8]],"i":[[2.5,1.1],[2.6999999999999957,0.09999999999999987],[4.899999999999999,-2.1999999999999997],[-1.0999999999999999,-11.799999999999997],[-6.800000000000001,-9.800000000000004],[-11.700000000000003,-5.900000000000006],[-5.699999999999996,4.799999999999997],[-0.6999999999999886,4.799999999999997],[18.5,18.7]],"o":[[-2.5,-1],[-5.400000000000002,-0.10000000000000009],[-10.8,4.9],[1.1,11.800000000000004],[7.4,10.799999999999997],[6.699999999999996,3.3999999999999915],[3.700000000000003,-3.200000000000003],[4.1000000000000085,-26],[-2,-1.8999999999999995]]}}},{"ty":"st","o":{"a":0,"k":0},"w":{"a":0,"k":0},"c":{"a":0,"k":[0,0,0,0]},"lc":3,"lj":1,"d":[]},{"o":{"a":0,"k":100},"r":1,"ty":"fl","c":{"a":0,"k":[0.9137254901960784,0.6901960784313725,0.5725490196078431,1]}},{"o":{"a":0,"k":100},"a":{"a":0,"k":[0,0]},"s":{"a":0,"k":[100,100]},"p":{"a":0,"k":[3,190]},"r":{"a":0,"k":0},"ty":"tr"}]}],"op":0},{"nm":"baby6","ip":0,"st":0,"ind":36,"hix":18,"ty":4,"ks":{"o":{"a":0,"k":0},"or":{"a":0,"k":[0,0,0]},"a":{"a":0,"k":[144,150,0]},"p":{"s":true,"x":{"a":0,"k":0},"y":{"a":0,"k":-138}},"rx":{"a":0,"k":0},"ry":{"a":0,"k":0},"rz":{"a":0,"k":0},"s":{"a":0,"k":[30,30]}},"shapes":[{"ty":"gr","it":[{"ty":"sh","ks":{"a":0,"k":{"c":true,"v":[[250.5,166.3],[251.2,160.2],[255.6,156.1],[263.7,162.4],[262.8,172.3],[255.7,174.5]],"i":[[0.30000000000001137,3.3999999999999773],[-0.799999999999983,1.9000000000000057],[-2,0.5999999999999943],[-1.599999999999966,-3.0999999999999943],[2.3000000000000114,-2.700000000000017],[2.5,0.8000000000000114]],"o":[[-0.19999999999998863,-2.1000000000000227],[0.8000000000000114,-1.8999999999999773],[3.4000000000000057,1],[1.6000000000000227,3.0999999999999943],[-1.6999999999999886,2],[-3.1999999999999886,-1]]}}},{"ty":"st","o":{"a":0,"k":0},"w":{"a":0,"k":0},"c":{"a":0,"k":[0,0,0,0]},"lc":3,"lj":1,"d":[]},{"o":{"a":0,"k":100},"r":1,"ty":"fl","c":{"a":0,"k":[0.8980392156862745,0.6627450980392157,0.5686274509803921,1]}},{"o":{"a":0,"k":100},"a":{"a":0,"k":[0,0]},"s":{"a":0,"k":[100,100]},"p":{"a":0,"k":[0,0]},"r":{"a":0,"k":0},"ty":"tr"}]},{"ty":"gr","it":[{"ty":"sh","ks":{"a":0,"k":{"c":true,"v":[[24.9,170.5],[29.4,173.6],[34.9,169.9],[36.5,166.4],[35.1,160.2],[32.8,156.9],[29.1,156.5],[26,158.7]],"i":[[-2.1999999999999993,-3.5999999999999943],[-1.8999999999999986,-0.09999999999999432],[-1.2999999999999972,1.9000000000000057],[-0.20000000000000284,1.299999999999983],[0.8999999999999986,1.9000000000000057],[1.1000000000000014,0.799999999999983],[1.1999999999999993,-0.4000000000000057],[0.8000000000000007,-1]],"o":[[1,1.5999999999999943],[2.3000000000000007,0.09999999999999432],[0.7000000000000028,-1.0999999999999943],[0.3999999999999986,-2.0999999999999943],[-0.6000000000000014,-1.1999999999999886],[-1.0999999999999979,-0.700000000000017],[-1.2000000000000028,0.4000000000000057],[-2.8999999999999986,3.200000000000017]]}}},{"ty":"st","o":{"a":0,"k":0},"w":{"a":0,"k":0},"c":{"a":0,"k":[0,0,0,0]},"lc":3,"lj":1,"d":[]},{"o":{"a":0,"k":100},"r":1,"ty":"fl","c":{"a":0,"k":[0.8980392156862745,0.6627450980392157,0.5686274509803921,1]}},{"o":{"a":0,"k":100},"a":{"a":0,"k":[0,0]},"s":{"a":0,"k":[100,100]},"p":{"a":0,"k":[0,0]},"r":{"a":0,"k":0},"ty":"tr"}]},{"ty":"gr","it":[{"ty":"sh","ks":{"a":0,"k":{"c":true,"v":[[53.7,66],[52.1,76.8],[55.2,83],[62,84.2],[71.8,79.7],[75.8,69.9],[69.8,61.5],[60,62.2]],"i":[[1.5999999999999943,-1.9000000000000057],[-0.7000000000000028,-3.700000000000003],[-1.8000000000000043,-1.5],[-2.3999999999999986,0.29999999999999716],[-2.700000000000003,2.5],[0.29999999999999716,3.6999999999999886],[3.4000000000000057,1.2999999999999972],[3.200000000000003,-1.1000000000000014]],"o":[[-2.4000000000000057,2.9000000000000057],[0.5,2.299999999999997],[1.8999999999999986,1.4000000000000057],[3.5999999999999943,-0.5],[2.6000000000000085,-2.5],[-0.29999999999999716,-3.700000000000003],[-3.0999999999999943,-1.1000000000000014],[-2.299999999999997,0.7999999999999972]]}}},{"ty":"st","o":{"a":0,"k":0},"w":{"a":0,"k":0},"c":{"a":0,"k":[0,0,0,0]},"lc":3,"lj":1,"d":[]},{"o":{"a":0,"k":100},"r":1,"ty":"fl","c":{"a":0,"k":[0.8980392156862745,0.6627450980392157,0.5686274509803921,1]}},{"o":{"a":0,"k":100},"a":{"a":0,"k":[0,0]},"s":{"a":0,"k":[100,100]},"p":{"a":0,"k":[167,210]},"r":{"a":0,"k":0},"ty":"tr"}]},{"ty":"gr","it":[{"ty":"sh","ks":{"a":0,"k":{"c":true,"v":[[67.8,40.6],[58.8,41.8],[53.5,48.9],[58.2,55.9],[71.2,53.9],[80.2,60.2],[85.8,53.9],[80.9,46]],"i":[[4.700000000000003,0.6000000000000014],[2.8000000000000043,-1.2999999999999972],[0.29999999999999716,-3.1000000000000014],[-3,-0.6999999999999957],[-4.299999999999997,-1.3999999999999986],[-3.700000000000003,-0.4000000000000057],[0.20000000000000284,3.200000000000003],[2.5,2]],"o":[[-3,-0.3999999999999986],[-2.6999999999999957,1.4000000000000057],[-0.29999999999999716,3.1000000000000014],[4.399999999999999,1],[3.5,1.1000000000000014],[3.200000000000003,0.3999999999999986],[-0.20000000000000284,-3.1999999999999957],[-3.8000000000000114,-2.8999999999999986]]}}},{"ty":"st","o":{"a":0,"k":0},"w":{"a":0,"k":0},"c":{"a":0,"k":[0,0,0,0]},"lc":3,"lj":1,"d":[]},{"o":{"a":0,"k":100},"r":1,"ty":"fl","c":{"a":0,